{"modelType":"DQN","layers":[{"weight":[[0.26976680755615234,1.4470055103302002,0.4795481860637665,1.4993791580200195,1.0448238849639893,0.9470217227935791,-0.7385740280151367,0.8428795337677002,1.9860776662826538],[-1.0938254594802856,0.3169730305671692,0.2912120819091797,0.03797468915581703,0.6581748127937317,0.46191442012786865,-0.052880752831697464,0.29965659976005554,-0.027619479224085808],[-0.15561330318450928,0.08496610820293427,-0.15357887744903564,-0.03909095376729965,-0.13538610935211182,0.22112366557121277,-0.26312339305877686,-0.15367011725902557,-0.09412491321563721],[-1.201306939125061,-0.23208092153072357,-1.1895006895065308,0.5993428230285645,-0.9170944094657898,-0.34420883655548096,-0.16013488173484802,-0.20855721831321716,0.4830363094806671],[-0.34928810596466064,0.6349753737449646,0.22143840789794922,-0.08828289061784744,0.8854105472564697,0.1349245011806488,0.23829598724842072,0.5345684289932251,0.33764100074768066],[-1.4165761470794678,-0.05810772255063057,0.0832439735531807,-0.09166579693555832,-0.25476598739624023,-0.011793925426900387,-0.17860306799411774,-0.19533072412014008,0.533644437789917],[-0.7706520557403564,-0.15158627927303314,0.016557037830352783,-0.16565772891044617,0.5332027673721313,-0.35006678104400635,0.15873445570468903,-0.20511966943740845,-0.176860049366951],[-1.4278855323791504,-0.09820294380187988,0.05147518590092659,-0.00969669222831726,-0.24991802871227264,0.24748875200748444,-0.26544439792633057,0.2688535153865814,0.4584067463874817],[-0.9937143921852112,-0.16034390032291412,-0.08532627671957016,-0.5616481900215149,-0.02677231840789318,0.513190507888794,-0.033541612327098846,0.3333633840084076,0.03768227621912956],[-0.8698924779891968,-0.8000875115394592,0.054607197642326355,0.7407243251800537,-1.2249538898468018,0.188071146607399,0.24406538903713226,-0.349012553691864,-0.2746739089488983],[-0.6909569501876831,-0.25004610419273376,0.195854052901268,0.8674279451370239,-0.9767950773239136,0.020358018577098846,0.17955586314201355,0.0021268180571496487,-0.793399453163147],[-0.3225315511226654,-0.19089007377624512,0.08326788991689682,-0.04399772733449936,-0.2419620007276535,0.007818898186087608,-0.2276938408613205,-0.2827988862991333,-0.18355421721935272],[-2.3461759090423584,-0.8310651779174805,0.09272890537977219,-0.037811677902936935,0.03139594569802284,-0.5421196818351746,-0.18919748067855835,-0.41578763723373413,-0.4411308765411377],[-0.2933071255683899,-0.14362435042858124,-0.19955620169639587,0.0009237527847290039,-0.12403440475463867,-0.02309858798980713,-0.2258765697479248,-0.22879838943481445,-0.19446727633476257],[-0.866685688495636,-0.6542125344276428,0.1913565844297409,-0.1910761296749115,0.640703558921814,-0.17844858765602112,-0.0949961319565773,0.2841470539569855,-0.4595774710178375],[-0.12777535617351532,-0.27669018507003784,-0.33138689398765564,0.09537021815776825,-0.07281462848186493,0.12977437674999237,-0.2735545039176941,0.24747638404369354,-0.24468457698822021],[-0.9047287106513977,-0.2927245795726776,0.08193909376859665,0.12187806516885757,0.5765370726585388,-0.3636661767959595,0.3022159934043884,-0.08344777673482895,-0.37554413080215454],[-1.32050359249115,0.07477382570505142,-0.12985269725322723,-0.05781230702996254,0.33385220170021057,0.30333244800567627,-0.2990277409553528,0.3002408742904663,0.05755748227238655],[-0.9762065410614014,-0.456661581993103,0.05650025233626366,-0.24887679517269135,0.08313199877738953,0.3661036491394043,-0.038324810564517975,-0.0993625596165657,-0.11246237903833389],[-2.1222445964813232,-0.7182531952857971,-0.4075637757778168,-0.32315072417259216,-0.3711690902709961,-0.2910555601119995,0.00979998055845499,-0.1637171357870102,-0.7550433874130249],[-0.6921205520629883,0.12015724927186966,0.15727077424526215,-0.2989276051521301,0.7261735200881958,0.2835312485694885,0.31332582235336304,-0.0201666709035635,-0.3779914081096649],[-1.0041338205337524,-0.4772970974445343,0.0011081190314143896,0.10015024244785309,0.4884065091609955,-0.15527929365634918,0.007078387308865786,0.02019975334405899,-0.3129764497280121],[-1.5956889390945435,-0.48798131942749023,-0.599246621131897,-0.004357496276497841,0.04729759320616722,-0.038718562573194504,-0.08647952228784561,-0.6003723740577698,-0.6640847325325012],[-1.4193246364593506,-0.5221672654151917,0.006108459085226059,0.09054651111364365,0.288852721452713,-0.10960216820240021,0.005824608262628317,-0.00782798696309328,0.3166652321815491],[0.048219166696071625,-0.086323581635952,0.137905091047287,-0.12696051597595215,-0.21575188636779785,0.24329575896263123,-0.1515672653913498,-0.06682225316762924,-0.33160144090652466],[-0.5930071473121643,0.5241501927375793,0.3892346918582916,-0.2466583400964737,0.0985003113746643,0.2933271825313568,-0.2437150627374649,0.35949137806892395,1.1010860204696655],[0.1746232956647873,0.08436405658721924,-0.003264228580519557,-0.2535020112991333,-0.2855907380580902,-0.3117828965187073,0.13645398616790771,-0.16365599632263184,-0.06708419322967529],[-0.19183509051799774,-0.06074118614196777,-0.2346116304397583,-0.21780523657798767,0.1105702742934227,-0.09906546771526337,0.20578107237815857,-0.1069362610578537,-0.24452242255210876],[-0.05881297588348389,-0.16158246994018555,-0.1019805297255516,-0.31733188033103943,0.18649697303771973,-0.23206818103790283,0.16753923892974854,0.15126141905784607,0.23814424872398376],[-1.153820514678955,-0.11970186233520508,-0.1223403736948967,-0.03736189007759094,0.5747511386871338,-0.11449398100376129,0.24011094868183136,-0.03743647411465645,-0.462846040725708],[-0.8288389444351196,-0.7071900963783264,0.09651404619216919,0.02780405431985855,0.4732681214809418,-0.1606227457523346,-0.21735094487667084,0.044325798749923706,-0.08077660202980042],[-0.33176958560943604,-0.07566122710704803,-0.19981849193572998,-0.02915458008646965,-0.16407117247581482,-0.13625586032867432,-0.10581962764263153,-0.31676802039146423,0.27350252866744995],[-0.8687476515769958,-0.10538609325885773,0.022315289825201035,-0.3220043480396271,-0.27159637212753296,-0.017360450699925423,0.06380902230739594,0.0002990725333802402,0.0006135885487310588],[-1.196590542793274,-0.38413774967193604,0.03717394545674324,-0.1603669822216034,-0.10324177145957947,0.23319171369075775,-0.1568138748407364,-0.14153744280338287,0.5327088236808777],[-0.9878351092338562,-0.029919946566224098,0.010901040397584438,-0.1516423374414444,0.8144254088401794,0.29595452547073364,-0.26890990138053894,0.17669259011745453,0.1994505673646927],[-0.5398032069206238,0.3197975158691406,0.38219597935676575,-0.11639630049467087,0.5652570128440857,-0.1267588883638382,-0.06484950333833694,0.3971927762031555,0.27443885803222656],[-0.21092967689037323,-0.2672950029373169,-0.22778789699077606,-0.32895922660827637,-0.2572129964828491,-0.08243247121572495,0.22495906054973602,0.05579408258199692,-0.2535351514816284],[1.424312949180603,0.9967815279960632,0.07915356755256653,0.2615218162536621,1.26228666305542,0.41615909337997437,0.5463955402374268,-0.006950462702661753,-0.001540644676424563],[-0.169010728597641,-0.29714614152908325,-0.2694523334503174,-0.17848722636699677,0.3219459056854248,-0.161004900932312,-0.22384266555309296,0.08079807460308075,0.09187011420726776],[0.23820851743221283,1.2544422149658203,0.8074883222579956,-0.19710417091846466,1.5404112339019775,0.8658588528633118,0.18447859585285187,0.1357002556324005,0.42683157324790955],[-1.95452880859375,-0.745631217956543,-0.6074766516685486,-0.07190031558275223,0.21447959542274475,-0.05271116644144058,0.033900223672389984,-0.6658203601837158,-0.7466541528701782],[-1.0118334293365479,0.13819830119609833,0.2073727548122406,-0.3986963629722595,0.15931102633476257,-0.09043023735284805,-0.34497174620628357,0.10418444126844406,0.2993467152118683],[-0.3734353482723236,-0.6225298643112183,0.2595272660255432,-0.38951045274734497,0.655190110206604,0.12217801809310913,0.4325457811355591,0.3124600648880005,-0.947246253490448],[-2.633145809173584,-0.9672200083732605,-0.0817294642329216,-0.12618404626846313,-0.15888217091560364,0.09449610114097595,-0.040392644703388214,-0.2701408863067627,-0.6536462903022766],[-1.1041975021362305,-0.09074421972036362,0.19638903439044952,-0.29935458302497864,0.28598517179489136,0.3415047526359558,0.04479176551103592,0.11846168339252472,-0.1495334357023239],[-2.653959035873413,-1.3858182430267334,0.027715567499399185,-0.20250388979911804,0.07354683429002762,-0.31285935640335083,-0.21360881626605988,-0.04177847132086754,-0.39091068506240845],[-0.8957829475402832,-0.19423145055770874,0.0025082265492528677,0.10920156538486481,-0.23314188420772552,-0.012022488750517368,0.012151313945651054,0.031479060649871826,-0.01239569392055273],[-1.034663438796997,0.32255518436431885,0.47801920771598816,-0.37600603699684143,-0.36163684725761414,0.5982380509376526,-0.06030052527785301,0.08799127489328384,-0.0043647740967571735],[-0.7688054442405701,-0.3914167881011963,-0.6219322085380554,0.6943615674972534,-1.3682034015655518,-0.945226788520813,-0.24304041266441345,-0.037875946611166,-0.056799110025167465],[-0.8492811322212219,-0.32390064001083374,0.10772615671157837,0.08743681758642197,-0.17513620853424072,-0.22910594940185547,0.21982108056545258,0.24495893716812134,-0.34408262372016907],[-1.9998031854629517,-0.9364838600158691,-0.5975509285926819,-0.08875659108161926,-0.014904421754181385,-0.07183750718832016,-0.18141022324562073,-0.10030818730592728,-0.36405816674232483],[-1.3038941621780396,0.38792845606803894,-0.12570509314537048,0.1834746152162552,-0.7323424816131592,-0.07021579891443253,-0.20572681725025177,-0.6070181727409363,-0.47569039463996887],[0.6802632808685303,1.3841887712478638,0.25376471877098083,0.8348273038864136,1.4145921468734741,0.03960365429520607,-0.3090023994445801,0.6534287929534912,0.12825261056423187],[-0.8150659799575806,-0.27279403805732727,0.04270309954881668,0.8008304238319397,-0.8389529585838318,-0.07553518563508987,0.1574932485818863,-0.009915133006870747,-0.7432307600975037],[-0.42252737283706665,0.11365443468093872,0.3904518485069275,0.245423823595047,0.6774753332138062,0.28297287225723267,0.22100290656089783,0.11206638067960739,-0.15673093497753143],[-1.1935739517211914,-0.11478053778409958,0.3695889413356781,-0.37741971015930176,0.002166790422052145,0.17699837684631348,-0.4319133460521698,0.01973390206694603,0.3344794511795044],[-0.03696640208363533,-0.2573009431362152,-0.24469271302223206,0.8207381963729858,-1.5507603883743286,-0.2633419930934906,-1.45514976978302,0.13220925629138947,0.2569792568683624],[-1.3198047876358032,-0.2727300822734833,0.2443779855966568,0.1956220120191574,-0.2602422833442688,0.9144181609153748,-0.11899369955062866,0.0189107283949852,0.5413196086883545],[-0.8064519762992859,0.08012497425079346,0.46341565251350403,-0.5252076983451843,0.9245483875274658,0.14732235670089722,0.3941592276096344,0.03094121254980564,-0.4456489086151123],[-2.875154495239258,-1.4773460626602173,0.1594953089952469,0.06600994616746902,-0.060705624520778656,-0.3986422121524811,-0.026884332299232483,-0.5888304710388184,-0.2518710792064667],[-1.1292383670806885,-0.25888094305992126,-0.06681076437234879,-0.1469285488128662,0.6739975214004517,0.05417684465646744,0.25473982095718384,0.27047139406204224,0.05005286633968353],[-1.1774061918258667,-0.43614551424980164,0.1265428215265274,-0.34180372953414917,0.3540577292442322,-0.032586243003606796,-0.089837945997715,0.1303863376379013,-0.1434779316186905],[-0.9499643445014954,0.08270534873008728,-0.0022794913966208696,0.20249053835868835,0.019824383780360222,-0.2632799446582794,0.018845053389668465,-0.14890791475772858,-0.4069881737232208],[-1.2878657579421997,-0.2989859879016876,-0.13216111063957214,-0.3645319938659668,-0.32277506589889526,0.1980886310338974,0.07013524323701859,0.3251819610595703,0.2741240859031677],[-0.8724985718727112,-0.10270790010690689,-0.08678099513053894,-0.23190763592720032,0.558552622795105,-0.33717429637908936,0.1872037798166275,0.43108418583869934,-0.1669885814189911],[-0.934537410736084,-0.494754433631897,-0.09297238290309906,-0.20430977642536163,0.30278006196022034,0.10832294076681137,0.33024895191192627,-0.22438372671604156,-0.19462302327156067],[-0.9996607899665833,-0.5634852647781372,-0.04988924413919449,-0.4225752353668213,0.5448063611984253,-0.08843988925218582,0.008003780618309975,0.15265236794948578,-0.39564135670661926],[-1.9251028299331665,-0.4631543755531311,-0.44737324118614197,-0.27999362349510193,0.11003531515598297,0.09848911315202713,0.1621873527765274,-0.16839593648910522,-0.6293055415153503],[-1.3140093088150024,0.5889536142349243,-0.30712422728538513,-0.1410161554813385,0.0415346622467041,-0.45011085271835327,-0.12587782740592957,-0.036672431975603104,-0.653985857963562],[-0.016721367835998535,-0.2767770290374756,-0.18646904826164246,-0.0068065328523516655,-0.20705315470695496,-0.0413365364074707,0.1356530636548996,-0.32605910301208496,0.09900403022766113],[-1.1813653707504272,-0.3125115931034088,0.1360432654619217,0.15707743167877197,0.11835505813360214,0.07187703996896744,-0.11978232860565186,-0.015338404104113579,-0.11222521215677261],[-1.035679578781128,-0.21941892802715302,-0.30859336256980896,0.22748857736587524,0.23367661237716675,-0.32428181171417236,0.03225618973374367,0.16952791810035706,-0.029172072187066078],[-0.3938398063182831,-0.4185436964035034,0.39532098174095154,-0.2101903259754181,1.154381275177002,-0.2698369324207306,0.6374319791793823,0.3616516590118408,-0.8478785157203674],[-1.084008812904358,0.44986552000045776,0.010234829969704151,-0.8679940700531006,0.47576627135276794,-0.04501227289438248,-0.04023175686597824,-0.31176668405532837,-0.48321694135665894],[-0.5180299878120422,-0.14132699370384216,0.2931758463382721,-0.40567368268966675,0.5478742718696594,0.12670479714870453,0.703902542591095,0.22412049770355225,-0.7432831525802612],[-0.6942929029464722,-0.2015213817358017,0.08369432389736176,-0.5079811215400696,0.3340591788291931,0.47009047865867615,0.08538398146629333,-0.1514011174440384,-0.041229985654354095],[-1.1794339418411255,0.2736465632915497,-0.12805086374282837,-0.1762007772922516,-0.33131879568099976,0.30280643701553345,-0.37981730699539185,0.4663883447647095,0.6890252828598022],[0.2674846053123474,0.6783515810966492,0.008497891947627068,0.8027761578559875,1.0914909839630127,-0.3440719246864319,0.5865237712860107,0.5644928216934204,-0.4925430417060852],[-0.1590677946805954,-0.27958208322525024,0.08371242135763168,-0.27018308639526367,0.14080822467803955,0.10526590049266815,-0.2896007299423218,0.0908336266875267,-0.027110179886221886],[-0.6871120929718018,0.05693363398313522,-0.3547305762767792,0.18008656799793243,0.5863305926322937,0.19552820920944214,-0.3163357675075531,-0.05614539235830307,-0.11162059009075165],[-1.1537179946899414,-1.379172921180725,-0.030771387740969658,0.15540455281734467,-0.4393002390861511,-0.024268869310617447,-0.12016551941633224,-0.7872623205184937,-1.0378930568695068],[-0.9908509850502014,-0.02518405020236969,-0.3014678955078125,-0.39295750856399536,0.4819849729537964,0.1655140519142151,0.4128319323062897,-0.13734108209609985,-0.4813506007194519],[0.11435253918170929,1.1851612329483032,0.6975240111351013,0.20059411227703094,1.3176106214523315,0.9842079877853394,-0.2932894229888916,0.16358613967895508,0.7832977771759033],[-0.8192815184593201,0.5723159313201904,0.15325665473937988,-0.03188521787524223,0.6261770725250244,-0.2924572825431824,0.014457489363849163,-0.15444040298461914,-1.2251886129379272],[-1.2349720001220703,0.22996382415294647,-0.05725445598363876,0.039460718631744385,-0.2379857897758484,0.3438853919506073,-0.2313525676727295,-0.1380506306886673,-0.11322586983442307],[-0.46609482169151306,-0.17542433738708496,-0.24393704533576965,-0.2602631449699402,0.8531946539878845,0.013342365622520447,0.5331596732139587,-0.11048940569162369,-0.6667711138725281],[-0.05031804367899895,-0.06095997616648674,-0.22841612994670868,0.027461647987365723,0.033129334449768066,-0.04220700263977051,0.04621060937643051,-0.1321168839931488,0.08675062656402588],[-1.0179471969604492,-0.49587681889533997,-0.08762136101722717,-0.04743844270706177,0.18973957002162933,0.019719967618584633,0.3757597804069519,-0.1001989096403122,0.25589779019355774],[-2.291081428527832,-1.2587995529174805,0.09725845605134964,-0.2732405662536621,-0.09069377928972244,-0.09253387153148651,-0.09215293824672699,-0.03931228816509247,-0.32164356112480164],[-2.159425735473633,-1.0096622705459595,0.046002231538295746,-0.1436285823583603,-0.19041652977466583,-0.14372044801712036,-0.05751829221844673,-0.07589215785264969,-0.49166131019592285],[-0.8623000383377075,-0.24775047600269318,0.05748331546783447,0.026746118441224098,0.5696086287498474,-0.27195635437965393,0.48289650678634644,0.3137841522693634,-0.5420767664909363],[-0.4949885308742523,0.6968203186988831,0.286455363035202,0.18865852057933807,-0.34945937991142273,-0.357685387134552,-0.14409932494163513,0.059286847710609436,-1.2109570503234863],[-1.0462650060653687,-0.171054407954216,0.21379896998405457,-0.2765926122665405,-0.30797868967056274,0.16163769364356995,-0.21379253268241882,0.18320490419864655,0.022586723789572716],[-1.1423770189285278,-0.07162638008594513,-0.00329910172149539,-0.021852942183613777,-0.4439142048358917,0.11423242092132568,-0.3081147372722626,0.022071728482842445,0.2798815667629242],[-0.9974173903465271,-0.4130473732948303,0.0011836308985948563,0.231158047914505,0.28484663367271423,-0.06259241700172424,0.024692391976714134,0.10198959708213806,-0.3055106997489929],[0.34875282645225525,1.3885027170181274,0.30540475249290466,1.2595716714859009,1.6221344470977783,0.25566360354423523,0.05639813467860222,0.8202463984489441,0.025896133854985237],[-1.183700442314148,-0.050118401646614075,0.2636583149433136,-0.09187941253185272,0.2468259483575821,-0.23389321565628052,-0.00993229541927576,0.331256628036499,-0.08866231888532639],[-1.1072030067443848,-0.3372659683227539,0.014322108589112759,-0.05027640238404274,0.19425542652606964,0.42242538928985596,-0.18802030384540558,0.1125759556889534,0.11897123605012894],[-0.4390352964401245,0.3404596149921417,0.20255737006664276,0.31320369243621826,0.8330898880958557,-0.07878903299570084,-0.17113734781742096,0.22659459710121155,-0.03995765000581741],[-1.207493543624878,-0.41906827688217163,0.0014426024863496423,0.1538042426109314,0.18617865443229675,-0.04111394286155701,0.015295007266104221,-0.00489463098347187,-0.2018754780292511],[0.33522436022758484,1.0785417556762695,0.6573959589004517,0.22153647243976593,1.1716358661651611,0.6358324885368347,-0.39892297983169556,0.37723687291145325,0.5495463609695435],[-1.0502395629882812,-0.5444585084915161,0.3479832112789154,0.08482594043016434,0.5073390603065491,0.32796210050582886,-0.016499342396855354,-0.014746865257620811,-0.21125778555870056],[-1.3653019666671753,0.13718371093273163,-0.06027917563915253,-0.2753128707408905,-0.06901710480451584,0.40719619393348694,0.06232040375471115,-0.06261637061834335,0.06892648339271545],[-0.9365963339805603,-0.3375348448753357,0.0031250789761543274,0.2718037962913513,-0.11806083470582962,-0.023243717849254608,0.03058994747698307,0.0149324806407094,0.01599300466477871],[-0.1729772537946701,0.1346481740474701,0.05664591118693352,-0.10668718814849854,-0.2589704692363739,-0.10495328903198242,-0.1406797170639038,-0.10847298800945282,-0.3007076680660248],[-0.95522141456604,-0.6452558040618896,0.016100531443953514,-0.457805871963501,0.3517712652683258,-0.08359673619270325,0.08463533222675323,0.2339053899049759,0.12943622469902039],[0.1911303997039795,-0.316502183675766,-0.2390332669019699,-0.12583701312541962,0.2753658890724182,0.034100137650966644,-0.2492990493774414,0.0020872752647846937,-0.2588902711868286],[-1.2275619506835938,-0.3582436144351959,0.269363671541214,-0.19738991558551788,0.19842369854450226,0.18082259595394135,-0.18243783712387085,0.11425924301147461,0.08892203122377396],[-0.8026440143585205,-0.14782103896141052,0.434841126203537,-0.26467248797416687,0.33644065260887146,0.47390857338905334,0.2974072992801666,0.36599186062812805,0.018259162083268166],[-0.9196370840072632,-0.11230424791574478,0.3178778290748596,-0.441502183675766,0.3047085702419281,-0.3209206163883209,0.1448468118906021,0.23090308904647827,-0.2516917884349823],[2.504406452178955,1.7264840602874756,1.0862016677856445,1.0583292245864868,1.3396466970443726,0.5150346159934998,0.6901422739028931,1.0455677509307861,1.1345815658569336],[0.026488451287150383,3.5658679008483887,-0.006078876554965973,0.13697706162929535,-0.30578160285949707,0.519387423992157,-0.9565402865409851,0.005049047525972128,-0.2346554547548294],[-0.1392124891281128,-0.08989529311656952,0.08662526309490204,-0.2697393298149109,-0.20176009833812714,0.004863818641752005,0.046356044709682465,0.1840974986553192,-0.23414799571037292],[-0.6198372840881348,0.20625410974025726,0.29983362555503845,0.1549040824174881,-0.7384651303291321,-0.43364521861076355,-0.006394984666258097,0.034595515578985214,-0.7124425768852234],[0.14157044887542725,-0.1956687867641449,0.05065330117940903,-0.20161931216716766,0.16663067042827606,-0.14579300582408905,-0.08358637988567352,-0.2892104387283325,0.0011011760216206312],[-0.7148515582084656,-0.0693843811750412,-0.3312681019306183,-0.16194012761116028,-0.040307510644197464,-0.23767893016338348,0.08696909993886948,0.055535513907670975,0.2332177311182022],[-0.923697292804718,-0.38935980200767517,0.0020792565774172544,0.059322964400053024,0.3808148503303528,-0.21285457909107208,0.5987175107002258,0.09454229474067688,-0.37681400775909424],[2.326176404953003,1.7952567338943481,1.1896227598190308,1.1745858192443848,1.1805577278137207,0.5869124531745911,0.42443910241127014,0.7206334471702576,1.1807432174682617],[0.29214316606521606,1.6258740425109863,0.4172574579715729,1.3599351644515991,0.9707325100898743,1.2478622198104858,-0.3708195388317108,0.9098476767539978,1.9953081607818604],[-0.7032651901245117,-0.31061679124832153,0.07897001504898071,-0.2954005300998688,0.36058250069618225,-0.17049600183963776,0.15934240818023682,-0.2290920615196228,-0.38101616501808167],[-1.9684425592422485,-0.5762584209442139,-0.46685513854026794,-0.4196026623249054,0.1264335960149765,0.036291975528001785,0.16691292822360992,-0.2170640230178833,-0.6363471150398254],[-1.2350395917892456,-0.04805565997958183,0.3751661479473114,-0.4963279068470001,0.6729520559310913,0.45084458589553833,0.09945652633905411,-0.16871757805347443,0.01244378462433815],[-0.6223238706588745,0.680344820022583,0.2977832555770874,0.33312949538230896,0.35339224338531494,1.1644747257232666,-0.7148274779319763,0.38958990573883057,1.1713296175003052],[-2.3092522621154785,0.14264775812625885,0.18496355414390564,0.13676220178604126,0.1318560093641281,0.07167792320251465,-0.04383081570267677,0.02825869806110859,0.20896905660629272],[-1.401383399963379,-0.035379983484745026,0.2224716991186142,-0.16540735960006714,-0.13245362043380737,0.04942132905125618,-0.1052740141749382,-0.18073154985904694,0.44171255826950073],[-1.0951013565063477,-0.07061386853456497,0.2566828429698944,0.045918602496385574,0.4151113033294678,-0.44798997044563293,0.5687287449836731,0.07520142197608948,-0.5859036445617676],[-1.0512824058532715,-0.4074271321296692,-0.0025873673148453236,0.1532815545797348,-0.323049932718277,0.041747160255908966,0.02038392424583435,-0.002348302397876978,0.38409480452537537],[-0.2795684337615967,0.009968876838684082,-0.14825324714183807,-0.16386961936950684,-0.3052123188972473,0.17673945426940918,0.06421216577291489,-0.28181442618370056,0.26451730728149414],[-0.31891685724258423,0.2682395875453949,-0.036560915410518646,0.03969557583332062,1.1417250633239746,0.3279217779636383,0.01797070913016796,0.4807698130607605,-0.19388531148433685],[-0.49805548787117004,0.1193465068936348,0.2698412537574768,-0.36430251598358154,0.7978689670562744,-0.3393391966819763,0.3208962380886078,-0.16581040620803833,-0.46291083097457886],[-0.5576086044311523,-0.026747459545731544,0.1422712206840515,-0.08332223445177078,1.2405078411102295,0.21872389316558838,0.6083807945251465,0.20937621593475342,-0.3012338876724243],[-0.6068840026855469,-0.16293194890022278,0.1652321070432663,0.05382777750492096,-1.2559409141540527,0.2668597400188446,0.05757046490907669,-0.06887436658143997,-0.4502427875995636],[-0.9614051580429077,-0.19266808032989502,-0.0005469126626849174,0.2199988216161728,0.31889787316322327,-0.320394903421402,0.019488289952278137,-0.18109890818595886,-0.36646783351898193],[-0.12975876033306122,-0.025089820846915245,-0.08106406778097153,-0.16841618716716766,-0.10589786618947983,-0.12058150768280029,0.3270127475261688,-0.12354294955730438,-0.23866698145866394],[-0.5574072599411011,-0.18421655893325806,0.13915681838989258,0.10934183746576309,0.6661677360534668,-0.4023338556289673,0.464728981256485,0.348626971244812,-0.5055410265922546],[-0.16633638739585876,-0.048010777682065964,0.07471691071987152,0.8064736127853394,-0.719622015953064,-0.06363914161920547,0.4300374984741211,0.1534293293952942,-1.2716686725616455],[-0.8453050851821899,-0.6592711210250854,0.18188314139842987,0.11861126124858856,0.2976839542388916,-0.21711349487304688,0.3631967306137085,0.04748846963047981,-0.17863015830516815],[-0.6780287027359009,0.23926648497581482,-0.08528483659029007,-0.20047339797019958,0.5246312618255615,0.1702437400817871,0.35469719767570496,-0.09428343921899796,-0.09592384099960327],[-1.2564892768859863,-0.022717375308275223,0.20755037665367126,-0.2927952706813812,-0.256350040435791,0.34543272852897644,-0.3093816339969635,0.041948504745960236,0.3092511296272278],[-0.33064472675323486,-0.06074178218841553,-0.031926434487104416,-0.09829282760620117,0.3062601685523987,-0.07273304462432861,0.21413907408714294,0.0825725793838501,-0.28137773275375366],[-0.45969611406326294,0.45031359791755676,-0.034730780869722366,-0.28969860076904297,1.0842849016189575,0.44641706347465515,-0.002992380876094103,0.3493806719779968,-0.1558225452899933],[-1.6817405223846436,0.2393089383840561,-0.3965832591056824,-0.4856102168560028,0.34994325041770935,-0.5948691368103027,0.21402616798877716,0.050806764513254166,-0.19138203561306],[-1.01667058467865,-0.11988341063261032,-0.1955784559249878,-0.22476992011070251,-0.038601700216531754,0.022299882024526596,-0.44342467188835144,0.3006408214569092,0.49920719861984253],[-1.048799753189087,0.1991725116968155,0.33593904972076416,0.17665156722068787,0.8101344108581543,0.5925527811050415,-0.13128916919231415,0.31966632604599,0.3099048435688019],[-1.1317609548568726,0.3131966292858124,0.11922848224639893,0.2485579401254654,-0.7395679354667664,0.17507876455783844,0.1473953276872635,-0.24918627738952637,-0.6920629739761353],[-0.536765992641449,0.3872714936733246,-0.1369825154542923,-0.09409811347723007,0.46159207820892334,0.3772996664047241,0.2800832688808441,0.23158612847328186,0.08374113589525223],[-0.9918144941329956,-0.3217417299747467,0.013553371652960777,-0.24386316537857056,-0.23192892968654633,0.513949453830719,-0.41460534930229187,0.02173450216650963,0.4056689739227295],[-1.0021485090255737,-0.5416258573532104,-0.17257049679756165,-0.056648317724466324,0.5583433508872986,-0.2275666743516922,0.35411813855171204,-0.18391719460487366,0.04556422680616379],[-0.10273664444684982,0.5915871262550354,-0.2599911093711853,0.2960127592086792,0.7197830677032471,0.12683817744255066,0.3724154233932495,0.10582631081342697,0.13871590793132782],[-2.7239551544189453,-1.0641804933547974,-0.06587152928113937,-0.09936928004026413,-0.3053107261657715,-0.15991438925266266,-0.04705015569925308,-0.5967128872871399,-0.45014694333076477],[-0.8451247215270996,-0.5564606785774231,0.046958424150943756,-0.13365456461906433,0.532035768032074,-0.1695755571126938,0.11729636043310165,0.19269703328609467,-0.20276615023612976],[-0.09546606242656708,-0.21970093250274658,0.07812964916229248,-0.31791752576828003,0.08779259771108627,0.16481491923332214,-0.29240018129348755,-0.21822413802146912,-0.2396419495344162],[0.03709736466407776,0.754184901714325,0.017460843548178673,0.8307769894599915,0.4027218520641327,-0.2936965227127075,-0.20756739377975464,0.5252721905708313,1.6409562826156616],[-0.9619176983833313,0.4365573525428772,0.48706310987472534,0.12865857779979706,0.01179977785795927,0.8859457969665527,-0.795127272605896,0.3829480707645416,0.6361788511276245],[-1.6878631114959717,0.38079631328582764,-0.013763649389147758,-0.751505434513092,-0.07999824732542038,0.035272978246212006,-0.04256217181682587,-0.3106130063533783,-0.01996993087232113],[0.04174284264445305,0.011235952377319336,0.06378166377544403,-0.21875624358654022,-0.27706608176231384,-0.10473720729351044,-0.31061801314353943,-0.15545019507408142,0.015335282310843468],[-1.369327187538147,-0.3046824038028717,-0.052929025143384933,-0.27385687828063965,-0.10628169775009155,0.2545187175273895,-0.12263961136341095,0.11272337287664413,0.2865743339061737],[-1.087726354598999,0.6645814180374146,-0.04308879375457764,-1.2457622289657593,0.7594120502471924,0.10800859332084656,0.04562191665172577,-0.1247420683503151,0.2535122334957123],[-1.1525020599365234,-0.5295138955116272,0.13954302668571472,-0.4618699848651886,0.10135176032781601,0.08692474663257599,-0.048816315829753876,-0.029210252687335014,0.3913256824016571],[-0.40634769201278687,0.2720916271209717,0.5485216379165649,-0.4039326608181,0.8049853444099426,0.47899359464645386,0.4316253960132599,-0.16017469763755798,-0.06613475829362869],[-0.18989531695842743,-0.013024608604609966,-0.06955675780773163,-0.2783215045928955,-0.31797146797180176,-0.21929931640625,0.15125684440135956,0.15247850120067596,-0.28992125391960144],[-1.1309301853179932,-0.2830999791622162,-0.053231917321681976,-0.05376360937952995,0.4876975119113922,0.019696934148669243,-0.024060571566224098,0.05410059168934822,-0.006243110168725252],[-0.9237366318702698,-0.4979836642742157,-0.3116838335990906,-0.06864070892333984,-0.06648633629083633,0.09332969039678574,-0.22589755058288574,-0.1316123753786087,0.5013805031776428],[-0.939206600189209,0.13332216441631317,0.441066712141037,-0.223335400223732,0.6683012843132019,0.09078288078308105,0.45245182514190674,-0.35418927669525146,-0.32140472531318665],[-1.9350366592407227,-0.44094938039779663,-0.338397353887558,-0.2590275704860687,-0.13245944678783417,0.13255050778388977,-0.2387658804655075,-0.6320863366127014,-0.5676784515380859],[-0.6519607901573181,-0.20215024054050446,0.17569394409656525,-0.03406388312578201,0.739500105381012,-0.4359169602394104,0.21974460780620575,-0.013179285451769829,-0.5877975821495056],[-1.0231608152389526,-0.5214505195617676,-0.15491549670696259,-0.052409544587135315,0.5166298747062683,0.29490241408348083,0.4225052297115326,0.06409239023923874,-0.09513772279024124],[-1.1973052024841309,-0.0765036791563034,-0.012149290181696415,0.006914447993040085,0.3306220769882202,0.301487535238266,0.0018454408273100853,-0.07415250688791275,0.2426794320344925],[0.5466812252998352,1.7105565071105957,0.6014420390129089,1.4111844301223755,1.9037418365478516,0.720687210559845,0.7434825897216797,0.6138312816619873,0.7313591837882996],[-0.9213783144950867,0.0784294605255127,0.37129268050193787,-0.16659137606620789,0.15023748576641083,0.16004513204097748,0.03777814283967018,0.05714227259159088,-0.15003667771816254],[0.2611728310585022,0.20026910305023193,-0.20705124735832214,-0.027160486206412315,-0.0319979190826416,-0.208910271525383,0.048618316650390625,-0.10233096778392792,-0.172087162733078],[-0.6693441271781921,-0.32098788022994995,0.4181685149669647,0.018680429086089134,1.0651015043258667,-0.06557448953390121,0.5211445093154907,0.18772007524967194,-0.6396976113319397],[-1.1889183521270752,-0.43156465888023376,-0.12938034534454346,-0.18399479985237122,0.3615345060825348,0.10780037939548492,0.3572811484336853,0.1310361623764038,-0.2873336374759674],[-2.5719592571258545,-0.122781902551651,-0.22154013812541962,0.2698282301425934,0.6582327485084534,0.46832725405693054,-0.106594979763031,-0.13526053726673126,-0.05960189178586006],[-1.070216417312622,-0.15287865698337555,0.00032845817622728646,-0.21904250979423523,0.23257185518741608,0.26794156432151794,-0.18918873369693756,-0.189723402261734,0.03485434502363205],[-0.03946852684020996,-0.15100932121276855,0.13998767733573914,0.0030230283737182617,-0.04848822206258774,-0.16136126220226288,-0.04385530948638916,-0.2834417223930359,0.07583010196685791],[-0.5780739188194275,0.5091996192932129,0.3189283013343811,-0.06711262464523315,0.8808490633964539,0.6577112674713135,-0.16005507111549377,0.3491264879703522,0.21447403728961945],[-0.22237226366996765,0.11606228351593018,-0.19991116225719452,-0.1049269437789917,-0.15888962149620056,-0.22677139937877655,0.2625238299369812,-0.29794031381607056,0.16667167842388153],[-1.3702499866485596,-0.1753675788640976,0.21807195246219635,0.039749979972839355,-0.07731206715106964,0.5855123996734619,0.13242563605308533,0.16149547696113586,-0.02768375724554062],[-1.2208888530731201,-0.26000386476516724,-0.0373978428542614,0.03929796814918518,-0.25376152992248535,0.4568071961402893,-0.2303829938173294,0.29975658655166626,0.34683957695961],[-1.7420896291732788,-0.27273595333099365,-0.30501437187194824,-0.09472470730543137,0.4752720892429352,-0.3177715241909027,0.31635355949401855,-0.9443995952606201,-0.46490350365638733],[1.2237573862075806,2.0054125785827637,-0.16562795639038086,0.1832071989774704,0.2331486940383911,0.0572681799530983,0.3816410303115845,-0.13080888986587524,-0.03367985039949417],[-0.9375042915344238,0.1105811670422554,0.3496754765510559,-0.03552525117993355,0.06600295007228851,0.6894350051879883,-0.6505599021911621,-0.1430615335702896,0.9109442830085754],[-2.37758469581604,-0.6735312938690186,-0.6603299379348755,-0.14330032467842102,-0.36692094802856445,0.04579255357384682,-0.29957541823387146,-0.17002730071544647,-0.6550297141075134],[-0.43140411376953125,-0.40243032574653625,0.22711800038814545,-0.2533930838108063,-0.020604843273758888,0.1546848863363266,0.5390132069587708,0.1116412878036499,-0.8177215456962585],[-1.067172646522522,-0.4964671730995178,0.1676332801580429,-0.17681260406970978,0.13196690380573273,-0.04727618023753166,0.11688384413719177,-0.059786707162857056,0.19656352698802948],[-0.13959179818630219,0.46252942085266113,0.26570793986320496,-0.24700111150741577,1.125010371208191,-0.04043130576610565,0.24081619083881378,0.19020816683769226,0.055300209671258926],[-0.7684765458106995,-0.271774560213089,0.10911525040864944,-0.5138252377510071,0.13140694797039032,-0.194370836019516,0.25199878215789795,-0.1265280693769455,-0.26423946022987366],[-0.480029821395874,0.42915064096450806,-0.09188245981931686,-0.26886582374572754,0.5101569294929504,0.3606387674808502,-0.02724376507103443,0.024730589240789413,-0.1507081538438797],[0.5214699506759644,1.8270262479782104,0.5549769997596741,1.458587646484375,1.8261678218841553,1.1419223546981812,-0.04671197012066841,0.7596467137336731,1.3756372928619385],[0.4791931211948395,1.0512840747833252,-0.30864131450653076,0.6775501370429993,1.1873817443847656,-0.3994796574115753,-0.0938606858253479,0.40481069684028625,0.9015576243400574],[-2.6605498790740967,-1.1131749153137207,0.16481104493141174,-0.31094834208488464,-0.07432758808135986,-0.21096105873584747,-0.019994355738162994,-0.11889956891536713,-0.5104091763496399],[-1.0973855257034302,-0.610897421836853,0.000828376563731581,0.1886041909456253,0.19117960333824158,-0.026828695088624954,0.019785311073064804,0.05110917240381241,-0.08370262384414673],[-1.1197305917739868,-0.5661854147911072,0.16554364562034607,-0.19196847081184387,0.3540511429309845,-0.18391907215118408,0.22944119572639465,0.2432769536972046,-0.08269935846328735],[0.3414192497730255,1.4621765613555908,0.435930997133255,0.35101011395454407,1.744340419769287,0.889129102230072,-0.14753612875938416,0.6981810331344604,0.5254255533218384],[-1.0052604675292969,0.16974958777427673,-0.19839520752429962,-0.07145894318819046,0.6451691389083862,-0.3926923871040344,-0.009423681534826756,-0.35032138228416443,-0.24786171317100525],[-1.2488149404525757,-0.36092498898506165,0.01210446935147047,0.08954889327287674,0.4124653935432434,0.11252228915691376,0.2162320911884308,-0.06310048699378967,-0.5260615348815918],[-0.7194135785102844,0.5053876042366028,0.027985339984297752,0.3039620518684387,-0.9513905048370361,-0.31826654076576233,-0.24896132946014404,0.06588815152645111,-0.5820123553276062],[-0.29446956515312195,0.03575821965932846,0.02418939396739006,-0.041182875633239746,0.119321309030056,0.1792597472667694,-0.3134700655937195,-0.25536391139030457,-0.016013305634260178],[-2.249953031539917,-0.2219882607460022,-0.0661432072520256,-0.1943274736404419,-0.16002218425273895,-0.15144644677639008,0.0051980456337332726,-0.11395213752985,-0.4579400420188904],[-0.18741266429424286,-0.2528042793273926,0.1948300302028656,-0.04607713222503662,-0.035019081085920334,-0.0868777483701706,-0.16090762615203857,0.05929676815867424,0.25645682215690613],[-0.741542637348175,-0.3407040238380432,-0.1833740472793579,-0.13897298276424408,0.7639555335044861,-0.2184804230928421,0.6214480996131897,0.08112562447786331,-0.4798312187194824],[-1.2378000020980835,0.12177156656980515,0.03842868283390999,-0.04690392315387726,0.4476299583911896,0.36673054099082947,0.10328586399555206,-0.07473719865083694,0.10384809970855713],[-2.108299970626831,-0.18193751573562622,-0.12444441020488739,-0.11797450482845306,-0.19987736642360687,-0.1903436779975891,-0.04228208586573601,-0.21988092362880707,-0.6224415898323059],[-0.470318078994751,-0.041433725506067276,0.3559231460094452,-0.15075339376926422,-0.33818691968917847,0.39153462648391724,0.3723266124725342,-0.08364265412092209,-0.9740890264511108],[-0.8825329542160034,0.48961305618286133,0.608708918094635,0.31544971466064453,0.20666632056236267,1.0112167596817017,-0.8396024107933044,0.309741735458374,1.3002514839172363],[-0.8659806847572327,0.3878323435783386,0.15076714754104614,-0.5938367247581482,-0.7229788899421692,1.0522390604019165,-0.053858932107686996,-0.2746974527835846,0.1255912333726883],[-0.21443241834640503,-0.03206387534737587,0.44788211584091187,-0.0029183421283960342,0.7638369202613831,0.5992856025695801,0.4602423310279846,0.28171995282173157,0.22239476442337036],[-1.4074872732162476,-0.006342659704387188,-0.6556398868560791,0.05287277698516846,-0.4492157995700836,-0.1111169308423996,-0.14018310606479645,-0.2707109749317169,-0.6288286447525024],[-1.3744044303894043,-0.016364142298698425,0.1409444957971573,-0.10280066728591919,0.04343045502901077,0.12351969629526138,-0.1540878862142563,0.19113096594810486,-0.13845644891262054],[-0.7440066337585449,0.16169887781143188,-0.3437178432941437,-0.08256281912326813,0.042051758617162704,0.021193884313106537,-0.1900486946105957,0.07199154794216156,0.7488913536071777],[-1.023140549659729,-0.06408536434173584,-0.07649640738964081,-0.2199806421995163,0.4771648049354553,0.40365105867385864,0.3059510886669159,-0.1348923295736313,-0.09824148565530777],[2.832669258117676,2.4208617210388184,-0.029295960441231728,0.6297504305839539,-0.17104332149028778,0.22159923613071442,-0.20674556493759155,0.03495636582374573,0.17349691689014435],[-1.337799310684204,0.1583901047706604,0.0978424921631813,-0.4636882543563843,-0.26319485902786255,0.3869878053665161,-0.3609151244163513,0.22730384767055511,0.15337544679641724],[-1.1395505666732788,-0.2358125001192093,0.2723689377307892,0.03604220226407051,-0.3111834228038788,0.2572759687900543,-0.2869808077812195,0.14415831863880157,-0.07773973047733307],[-1.1701871156692505,0.2940654456615448,-0.19408626854419708,0.059033311903476715,0.33593183755874634,0.6025530099868774,-0.4701608717441559,0.25842034816741943,0.32025837898254395],[-0.824040949344635,-0.04816097393631935,-0.2992648482322693,-0.3576408624649048,0.4765147864818573,-0.2061159908771515,-0.07180667668581009,0.08707460016012192,-0.2220659703016281],[-0.045603953301906586,-0.22332851588726044,0.12027295678853989,-0.2868272066116333,0.026997646316885948,0.19451317191123962,0.06404535472393036,0.04428994655609131,0.04875469207763672],[-0.9388095736503601,-0.013529595918953419,0.24669486284255981,-0.5171725749969482,-0.1171184703707695,1.0074636936187744,-0.0743633583188057,0.07601792365312576,0.32739487290382385],[-1.1149007081985474,-0.5090659260749817,-0.08607354015111923,-0.32938507199287415,0.22831109166145325,-0.18643048405647278,0.014645776711404324,0.1071571484208107,0.30762460827827454],[-0.9133500456809998,-0.26430410146713257,0.18985503911972046,-0.06971484422683716,0.28568246960639954,-0.05637192353606224,-0.12313920259475708,-0.06882070004940033,-0.2778063714504242],[-1.1768767833709717,-0.35540488362312317,0.07912973314523697,-0.0068887085653841496,-0.20597821474075317,-0.06430896371603012,-0.14593419432640076,-0.12003488838672638,0.39009684324264526],[-0.21501454710960388,-0.031352363526821136,-0.07064636796712875,-0.20231077075004578,0.1510949581861496,-0.1388518512248993,-0.017244061455130577,-0.23436157405376434,-0.033619921654462814],[0.04736193269491196,-0.013564269058406353,-0.12454923242330551,0.09902787208557129,-0.08636586368083954,-0.18479964137077332,-0.245810866355896,-0.07060985267162323,-0.31489282846450806],[-0.8326462507247925,-0.5130562782287598,-0.2147485315799713,-0.21756048500537872,0.1377812922000885,0.01676720567047596,0.20942407846450806,-0.19881445169448853,0.0010102085070684552],[-1.021956205368042,-0.5306180119514465,-0.2062220424413681,-0.10785546898841858,0.2950975000858307,0.22303925454616547,0.21700473129749298,-0.0977795347571373,-0.24734291434288025],[-0.07068046182394028,-0.2388068437576294,-0.08999662101268768,-0.2727709710597992,0.12678071856498718,0.23585312068462372,0.026392143219709396,-0.2386268824338913,-0.2524360120296478],[-0.88373202085495,-0.08735499531030655,0.13236509263515472,-0.11911746859550476,0.9424123764038086,0.1590835601091385,0.33746856451034546,-0.03376084566116333,-0.3163750171661377],[-0.8667974472045898,-0.5638945698738098,-0.10076688230037689,-0.14714683592319489,0.32991668581962585,0.2754207253456116,-0.058487989008426666,-0.15915626287460327,-0.014918900094926357],[-1.238037109375,-0.14643651247024536,0.05639015883207321,-0.03418498486280441,0.16854426264762878,0.5555846095085144,-0.46085885167121887,0.07593391090631485,0.09376250952482224],[-1.3237782716751099,-0.12651567161083221,-0.3328562080860138,0.041597310453653336,0.033372119069099426,0.15736429393291473,-0.06659138947725296,0.00993574969470501,0.1884136199951172],[-0.713629961013794,-0.3730870485305786,0.10285117477178574,-0.23382630944252014,0.29030513763427734,-0.014598497189581394,0.39001548290252686,-0.046826306730508804,-0.4089207947254181],[-0.8093833923339844,-0.3703267574310303,0.19163638353347778,-0.311585932970047,0.43039727210998535,0.43377020955085754,-0.16479963064193726,-0.1998300701379776,-0.03302877023816109],[-1.1823935508728027,-0.34872207045555115,-0.2517707049846649,0.05541108548641205,-0.05765077471733093,0.17674414813518524,-0.17927710711956024,-0.05121511593461037,0.3625698685646057],[-0.6367347240447998,0.4428284466266632,0.12007550895214081,-0.11257988959550858,0.7918612360954285,0.2129122018814087,-0.07733961194753647,0.26799270510673523,0.41083773970603943],[0.6182546615600586,1.8375571966171265,0.9398325681686401,1.441428542137146,1.9941068887710571,0.8218511343002319,0.44195476174354553,1.0795917510986328,1.0867940187454224],[-0.5927110314369202,-0.23790524899959564,0.39874374866485596,-0.4336334764957428,0.882846474647522,0.11926499009132385,0.6159761548042297,-0.019036810845136642,-0.8834779858589172],[-0.6952812075614929,-0.38949447870254517,0.08401688188314438,0.701642632484436,-1.3008782863616943,0.4387734830379486,0.2615566551685333,0.2741974890232086,-0.9257473945617676],[-0.22166708111763,0.37772661447525024,-0.03343310207128525,0.4788249135017395,0.5111374258995056,-0.4334942698478699,0.2520470917224884,0.26536816358566284,0.11253666132688522],[-1.273991584777832,-0.37283608317375183,-0.21761484444141388,0.15230590105056763,0.4279116988182068,0.21273237466812134,0.2725277543067932,-0.1584572046995163,-0.37033578753471375],[-1.1288607120513916,-0.5234175324440002,0.23784139752388,-0.12137753516435623,0.48751768469810486,-0.06924241781234741,-0.15023909509181976,-0.08817554265260696,-0.044450219720602036],[-0.7778561115264893,0.2092873901128769,0.17839990556240082,-0.48894813656806946,0.23154792189598083,0.7010578513145447,-0.43656569719314575,0.2499345988035202,0.447507381439209],[-0.12802910804748535,0.20302610099315643,-0.10711085796356201,-0.011074225418269634,-0.12697100639343262,-0.31619054079055786,0.053746066987514496,0.09632309526205063,-0.16782712936401367],[0.2044822871685028,-0.2990185022354126,-0.32132554054260254,-0.2058829963207245,-0.11520163714885712,-0.03701937198638916,-0.06441593170166016,0.15212950110435486,-0.2925418019294739],[-0.7634783983230591,-0.16642814874649048,-0.03249157592654228,0.6182358860969543,0.5262577533721924,-1.0605729818344116,0.06993988156318665,0.1013464629650116,-0.5972691178321838],[-0.7207552194595337,0.04047255590558052,0.3798469603061676,-0.00874358881264925,0.33495965600013733,0.2889525294303894,-0.029919030144810677,0.03760572150349617,0.42896363139152527],[-1.8698043823242188,0.2650195360183716,-0.19263818860054016,-0.6136745810508728,0.18030859529972076,0.13307134807109833,0.02965981513261795,-0.3517022430896759,-0.48963117599487305],[-0.7795683741569519,-0.47571489214897156,-0.06128285825252533,-0.1256125271320343,0.528104305267334,0.06372634321451187,-0.025373781099915504,0.09013053774833679,-0.5238444209098816],[-0.8917737007141113,-0.687472403049469,-0.04220791533589363,-0.40928399562835693,0.6759672164916992,0.02472464181482792,-0.04133296385407448,-0.25766441226005554,-0.15266603231430054],[-1.303671956062317,-0.04929463192820549,0.009304184466600418,-0.033012501895427704,-0.37865525484085083,0.3034707307815552,-0.28523048758506775,0.20512060821056366,0.40650278329849243],[-0.32034286856651306,-0.19037334620952606,-0.15425896644592285,-0.3092765510082245,0.04268229007720947,0.11877930164337158,-0.06115921586751938,-0.1326482743024826,-0.0020215115509927273],[-3.1359665393829346,-1.5596256256103516,-0.060887400060892105,0.24542561173439026,-0.09205649048089981,0.06794507056474686,-0.12215299904346466,-0.36570149660110474,-0.6367083787918091],[0.14796268939971924,1.0621875524520874,0.10660640150308609,0.4564647674560547,1.2151843309402466,0.39659643173217773,0.46161627769470215,-0.04300488159060478,-0.5836828351020813],[-0.2558467984199524,0.10426187515258789,-0.28832554817199707,-0.2544482350349426,-0.16156761348247528,-0.3072284460067749,0.0004491408762987703,0.04808938503265381,-0.19506680965423584],[-0.7781294584274292,-0.4978591799736023,-0.1746777892112732,0.07398351281881332,0.33226636052131653,-0.05466239154338837,-0.14450600743293762,-0.15336933732032776,-0.12565229833126068],[0.1953974962234497,0.16594824194908142,-0.14719414710998535,-0.31512221693992615,-0.29171568155288696,-0.10605208575725555,0.004181385040283203,-0.14972519874572754,-0.2635684013366699]],"bias":[1.9409950971603394,1.1558552980422974,-0.25597473978996277,0.5798088908195496,1.5244221687316895,1.6012253761291504,1.5170396566390991,1.247283935546875,1.4000203609466553,1.1476126909255981,1.029334545135498,-0.2688581347465515,0.33508142828941345,-0.22645092010498047,1.449165940284729,-0.3051339089870453,1.3422061204910278,1.2276573181152344,1.7253133058547974,0.7131797075271606,1.6137107610702515,1.3276658058166504,0.5985867977142334,1.4208173751831055,-0.2303098887205124,1.3922926187515259,-0.06696180999279022,-0.07831823825836182,-0.31576740741729736,1.5616039037704468,1.601995587348938,-0.18385779857635498,1.4972434043884277,1.365121841430664,1.40303635597229,1.5371872186660767,0.28886085748672485,-1.52756929397583,-0.21089236438274384,1.6682177782058716,0.6969863176345825,1.4767519235610962,1.424410104751587,0.5033079981803894,1.3481249809265137,0.44978123903274536,1.2404359579086304,1.3123365640640259,1.0572036504745483,1.5711373090744019,0.3975030183792114,0.6871423125267029,2.0402588844299316,1.2227985858917236,1.553978443145752,1.400722861289978,1.3192942142486572,1.1584479808807373,1.3821266889572144,0.3482464849948883,1.6670230627059937,1.6304906606674194,1.3769656419754028,1.7408264875411987,1.2940208911895752,1.6447049379348755,1.761320948600769,0.5754708647727966,0.24294929206371307,-0.10756544768810272,1.381534218788147,1.408255696296692,1.2061307430267334,0.5806631445884705,1.310987949371338,1.3242827653884888,1.3042287826538086,1.5717252492904663,-0.30957505106925964,1.2581043243408203,0.46755775809288025,1.7001749277114868,2.0899088382720947,0.2721758782863617,1.4102797508239746,1.3130087852478027,-0.2577190101146698,1.333573579788208,0.43262961506843567,0.29908427596092224,1.1459418535232544,0.6671281456947327,1.6250749826431274,1.6340633630752563,1.2138903141021729,1.51701021194458,1.0750439167022705,1.1451592445373535,1.4129503965377808,1.5336772203445435,1.9205502271652222,1.295254111289978,1.4668105840682983,1.1718924045562744,-0.2715626657009125,1.4564869403839111,-0.18380030989646912,1.3967419862747192,1.6847891807556152,1.3120282888412476,-0.29491478204727173,-2.4299004077911377,-0.30104905366897583,1.2531453371047974,-0.15741872787475586,1.5329458713531494,1.2191133499145508,-0.46433892846107483,1.9512494802474976,1.508968472480774,0.7926266193389893,1.6843738555908203,1.551882028579712,0.9000592231750488,1.3549981117248535,1.3843168020248413,1.2868610620498657,-0.3156827688217163,1.2895241975784302,1.6823252439498901,1.2617799043655396,1.3002241849899292,1.3928946256637573,0.08119495958089828,1.7339967489242554,0.8141423463821411,1.2758146524429321,1.5240755081176758,1.4233810901641846,-0.324404776096344,1.6540979146957397,0.3203963339328766,1.4508874416351318,1.7042666673660278,0.6732723116874695,1.4956917762756348,1.3093502521514893,1.631680965423584,1.8235957622528076,0.5186969637870789,1.2397276163101196,-0.1810123175382614,2.0061352252960205,1.7090299129486084,0.8012918829917908,-0.25990578532218933,1.6408263444900513,0.9347915649414062,1.5948050022125244,1.8173975944519043,0.036537013947963715,1.232904314994812,1.6471705436706543,1.170583724975586,0.682587742805481,1.247455358505249,1.3772443532943726,1.1529971361160278,1.7755275964736938,1.501631736755371,-0.2388426959514618,1.1602734327316284,1.6520119905471802,0.9991635084152222,1.3584303855895996,-0.23498694598674774,1.4612504243850708,-0.10792684555053711,1.5402721166610718,1.2077728509902954,0.34839102625846863,-2.3538081645965576,1.2422271966934204,0.6513798832893372,1.4701464176177979,1.4137321710586548,1.49190354347229,1.6783472299575806,1.5875977277755737,1.8786572217941284,1.7164827585220337,0.5333349108695984,1.4386733770370483,1.4553006887435913,2.0837478637695312,1.2739697694778442,1.6904337406158447,0.6880788803100586,-0.1535177230834961,0.3488113582134247,-0.31273600459098816,1.3669500350952148,1.0854754447937012,0.3752312660217285,1.349427580833435,1.4039579629898071,0.9643784761428833,1.8671993017196655,0.4512959122657776,1.4680379629135132,1.6883655786514282,1.327968716621399,-0.7847203016281128,1.524315595626831,1.666016697883606,1.3616317510604858,1.7026124000549316,-0.2616220712661743,1.099374532699585,1.626960039138794,1.3160980939865112,1.6654061079025269,0.024239063262939453,-0.1382363736629486,1.6261041164398193,1.682260274887085,0.03093532845377922,1.2076869010925293,1.4238831996917725,1.1552703380584717,1.5783318281173706,1.428849697113037,1.4107513427734375,1.5345827341079712,1.645024299621582,1.8272027969360352,1.6840450763702393,1.1042850017547607,1.3544644117355347,1.6646878719329834,1.4442570209503174,1.3771018981933594,-0.238387793302536,-0.055307626724243164,0.8208138346672058,1.6517856121063232,0.7612295746803284,1.3887875080108643,1.7333462238311768,1.2786033153533936,0.05708281323313713,0.3138643801212311,1.661656379699707,0.13474330306053162,1.5035470724105835,-0.01117750070989132]},{"weight":[[-0.04209650307893753,0.032946325838565826,0.04137911647558212,0.004222036339342594,-0.03830381855368614,0.006947929970920086,-0.009983297437429428,0.051375601440668106,0.0032189046032726765,-0.0003257884818594903,-0.006941867992281914,0.03325057029724121,-0.009258738718926907,0.05357152223587036,0.021271569654345512,-0.047226689755916595,-0.01101367175579071,-0.054122790694236755,-0.060615915805101395,0.005138962995260954,0.002612312091514468,-0.016571220010519028,0.06123404949903488,-0.04393130913376808,-0.026192858815193176,-0.00904900673776865,0.0003789439797401428,-0.005293898284435272,0.056274302303791046,-0.036344531923532486,-0.0438833050429821,0.005371876060962677,0.046165965497493744,0.0177327748388052,0.025456344708800316,0.00239085522480309,0.053268030285835266,0.03750559687614441,0.04472304880619049,-0.007119066547602415,-0.05759499967098236,-0.028171151876449585,0.009104130789637566,0.03136244788765907,-0.03389574959874153,0.05375957116484642,0.007908531464636326,-0.006572756450623274,0.001910728751681745,-0.022526897490024567,0.05016682296991348,-0.0016492829890921712,0.027654360979795456,-0.059717051684856415,-0.043793559074401855,-0.003024359932169318,0.05416927859187126,0.029591549187898636,0.0014104638248682022,-0.0728929191827774,-0.010014673694968224,-0.052153799682855606,-0.06285350024700165,0.013442156836390495,-0.03632678836584091,0.04473840445280075,-0.044364720582962036,0.006861457601189613,0.03012140467762947,-0.04857732355594635,0.02666657418012619,-0.015960510820150375,0.020737309008836746,0.05049097537994385,-0.039442528039216995,-0.026644423604011536,0.05348418653011322,-0.00435379333794117,-0.006233297288417816,0.04188802093267441,-0.042823426425457,-0.007614366244524717,0.03190099447965622,0.013486727140843868,-0.04190454259514809,0.019850105047225952,-0.04765229672193527,-0.044449351727962494,0.03766488656401634,-0.02809387631714344,-0.04391304776072502,-0.002975979121401906,0.006617519073188305,-0.03440100699663162,-0.05214539170265198,-0.07103481143712997,0.008129345253109932,-0.05164356157183647,-0.005553846713155508,-0.024196334183216095,-0.05163457989692688,-0.03178905323147774,-0.06051366403698921,-0.0348517931997776,-0.0019482001662254333,-0.05063575506210327,-0.05481458455324173,0.03519628942012787,-0.005942593328654766,-0.02653772570192814,0.0018536837305873632,0.04663115739822388,-0.05214159935712814,-0.040569793432950974,-0.045196279883384705,-0.013453974388539791,-0.007542219012975693,-0.04767155274748802,0.03269064426422119,-0.0589618980884552,0.04566988721489906,-0.05406904220581055,-0.018695689737796783,0.0010769900400191545,-0.035127393901348114,0.046519745141267776,-0.054157137870788574,-0.0034642741084098816,-0.05307939276099205,0.007571026217192411,0.0420222245156765,0.04850039258599281,-0.001977365231141448,-0.03129032999277115,0.04941480606794357,-0.002061104169115424,0.03055754490196705,-0.04221796616911888,-0.038961030542850494,-0.051883332431316376,0.04912983998656273,0.003985108807682991,-0.04002168029546738,-0.005939757451415062,-0.03840966522693634,-0.007933865301311016,0.022365884855389595,-0.042860712856054306,-0.00023638609854970127,-0.04427683353424072,0.0021121588069945574,-0.06034602224826813,-0.0007046872633509338,0.05102934315800667,0.05150666832923889,0.022798821330070496,0.03571508824825287,0.04990792274475098,0.010900108143687248,0.009230502881109715,0.008127130568027496,0.049671366810798645,0.04381020739674568,-0.040797848254442215,-0.004668856505304575,-0.03913270682096481,0.010312074795365334,-0.0591263510286808,0.010817342437803745,-0.028683003038167953,0.022665753960609436,0.008277163840830326,-0.04350339248776436,0.020210307091474533,0.019837016239762306,-0.05312754958868027,0.05176452174782753,0.053797073662281036,0.026886887848377228,-0.013504010625183582,0.010328063741326332,-0.029997609555721283,-0.02100822702050209,0.027945073321461678,0.015466880984604359,0.012359090149402618,-0.05320604145526886,0.0425548292696476,-0.017431816086173058,0.04422743245959282,0.0440625362098217,0.02055113948881626,0.05068133398890495,0.024213816970586777,0.025782639160752296,-0.029224487021565437,0.046054475009441376,0.016614360734820366,0.036927230656147,-0.022608861327171326,0.045263804495334625,0.058382127434015274,-0.04482433572411537,0.04027847573161125,-0.05441064015030861,-0.0537458173930645,-0.05404854938387871,0.006412525195628405,-0.04676192253828049,-0.03478654846549034,-0.03518636152148247,0.01916595734655857,-0.06023572385311127,-0.025091927498579025,-0.010726217180490494,-0.0007192874327301979,-0.03263005614280701,0.022391483187675476,-0.043821655213832855,-0.057071004062891006,-0.019049815833568573,-0.044022224843502045,0.03939582407474518,-0.042719922959804535,-0.016962995752692223,0.013542253524065018,-0.05473368614912033,0.0388304628431797,-0.03078194335103035,-0.027301691472530365,-0.04937371611595154,-0.035723213106393814,-0.035687219351530075,-0.06391337513923645,0.011607515625655651,-0.01121046207845211,0.049484480172395706,0.030433956533670425,0.043082211166620255,0.0065215271897614,0.021884167566895485,0.06117236241698265,0.05131497234106064,-0.04802493005990982,-0.023074325174093246,-0.07185783982276917,-0.004879397805780172,-0.034200966358184814,0.04269786551594734,0.016231859102845192,0.0006878674030303955,-0.04439299926161766,-0.060120485723018646,0.009838990867137909,-0.041934967041015625,-0.02870327979326248],[0.11291495710611343,0.3439882695674896,-0.02781905233860016,0.16528725624084473,0.34875982999801636,0.5240135192871094,0.6029669046401978,0.40142765641212463,0.8475843667984009,0.1679237335920334,0.7955756187438965,-0.0024341940879821777,0.45072415471076965,-0.04131099581718445,0.8313865661621094,-0.033201031386852264,0.4714459478855133,0.5906803011894226,0.8336718678474426,0.4499123990535736,0.6635639667510986,0.5243119597434998,0.7137523889541626,0.6788524389266968,0.05449536442756653,0.2617693841457367,0.0440138578414917,0.021962538361549377,0.01783142238855362,0.8513455390930176,0.500609815120697,0.028627537190914154,0.8511815667152405,0.6093452572822571,0.4610711932182312,0.3750755190849304,-0.02942053973674774,-1.6723212003707886,0.020477063953876495,0.3629225790500641,0.896264374256134,0.5802849531173706,0.7061045169830322,0.7775342464447021,0.8770485520362854,0.8273481130599976,0.5918382406234741,0.6666088700294495,0.21332822740077972,0.38440969586372375,0.18717359006404877,0.3439466059207916,0.27907946705818176,0.8335170745849609,0.31287434697151184,0.6771604418754578,0.7454732656478882,0.5725352168083191,0.6532467007637024,0.6517708897590637,0.5855774879455566,0.9085677862167358,0.38646018505096436,0.9655737280845642,0.6060183644294739,0.7379483580589294,1.271511197090149,0.4653668701648712,0.6556360721588135,0.059743136167526245,0.7732639908790588,0.39936038851737976,0.5796465277671814,0.8767903447151184,0.6984245777130127,0.7756251096725464,0.38399142026901245,0.16667817533016205,0.007189199328422546,0.36373475193977356,0.6198980808258057,1.2132176160812378,0.36208871006965637,0.4727514982223511,0.4669073522090912,0.7502676248550415,-0.04138839244842529,0.4977259635925293,0.885865330696106,0.5612239837646484,0.4541403353214264,1.0056302547454834,0.760776162147522,0.6994007229804993,0.4466862678527832,0.18482433259487152,0.4812488853931427,0.439069926738739,0.22932951152324677,0.7567746639251709,0.24931766092777252,0.5600185990333557,0.7102749943733215,0.406150758266449,0.04116097092628479,0.9738154411315918,0.02695515751838684,0.6622756719589233,0.4514543116092682,0.9351635575294495,-1.7270461320877075,-9.316154479980469,0.043739207088947296,0.5560996532440186,-0.01971479505300522,0.42902672290802,0.6238686442375183,-1.7559726238250732,0.04560341313481331,0.8365987539291382,0.7210116386413574,0.8983616828918457,0.21513329446315765,-1.1021270751953125,0.5083815455436707,0.773001492023468,0.21382664144039154,0.054008081555366516,0.3978429138660431,0.6950901746749878,0.4015442728996277,0.8013452291488647,0.5734085440635681,0.05909445136785507,0.4647734761238098,0.9210488796234131,0.3814588785171509,0.5766628980636597,0.6328706741333008,0.030016988515853882,0.5197418928146362,1.3370212316513062,0.5444471836090088,0.3956003785133362,0.13584403693675995,0.36401161551475525,0.6165755391120911,0.804507851600647,0.2891741096973419,0.5700762271881104,0.6248332858085632,-0.05430063605308533,0.07209674268960953,0.3256402015686035,2.1193900108337402,-0.04788213223218918,0.9278218150138855,1.5849461555480957,0.9408826231956482,0.5318759083747864,-0.003640688955783844,0.5258692502975464,0.559072732925415,0.5251591801643372,0.6849231719970703,0.7524334192276001,0.702103853225708,0.49463576078414917,0.11314430087804794,0.5260648727416992,0.02976960688829422,0.44591736793518066,0.9120010137557983,-1.288301944732666,0.6806658506393433,-6.904453039169312e-05,0.39104628562927246,-0.013481609523296356,0.7031875848770142,0.28485551476478577,0.6979133486747742,-3.6142868995666504,0.2080966830253601,0.6431872248649597,0.7980591058731079,0.7070143222808838,0.43404802680015564,1.043636679649353,0.6153773069381714,0.1329677850008011,0.16515080630779266,1.1279301643371582,0.4956173896789551,0.5864545106887817,0.2441771924495697,0.6629595160484314,0.7914301753044128,0.3545178472995758,0.01278146356344223,0.3785797655582428,0.015462979674339294,0.9451988339424133,0.4960687458515167,0.2502138912677765,0.8053283095359802,0.15732504427433014,0.9307454824447632,0.29474636912345886,0.20788522064685822,0.6640006303787231,0.407382607460022,0.7969716787338257,-4.5199384689331055,0.8145955801010132,0.5789071321487427,0.44363775849342346,0.988654375076294,-0.03153142333030701,0.8064287900924683,0.8332415223121643,0.5371360182762146,0.5379600524902344,-0.022394582629203796,-0.025115594267845154,0.6503776907920837,0.8242680430412292,-0.035547107458114624,0.5830905437469482,0.8032357692718506,0.5248532891273499,0.5853245258331299,0.7555421590805054,0.5970067977905273,0.45426705479621887,0.4402613937854767,0.17501278221607208,0.857036292552948,0.9147151112556458,0.15403492748737335,0.7910794019699097,0.6712521910667419,0.5238950848579407,-0.05933926999568939,0.02732568234205246,0.62743079662323,0.40871432423591614,0.8560813665390015,0.8722808957099915,1.1192599534988403,0.40452927350997925,0.036467909812927246,0.9318308234214783,0.3792111575603485,0.029068656265735626,0.4287238121032715,0.031893469393253326],[0.11464384943246841,0.26241499185562134,-0.016728654503822327,0.5709307193756104,0.36574041843414307,0.7174178957939148,0.7044202089309692,0.4362233579158783,0.7240734696388245,-0.03540695086121559,0.4374198913574219,-0.04846775531768799,0.3536889851093292,-0.010189563035964966,0.8137035965919495,0.055579595267772675,0.6792532205581665,0.5113809704780579,0.8127472996711731,0.37275806069374084,0.4988429546356201,0.7472726702690125,0.8733377456665039,0.8811019659042358,-0.048298902809619904,0.3437391221523285,-0.05165594071149826,0.031238898634910583,0.007407143712043762,0.8899157643318176,0.561787486076355,-0.02197345346212387,0.9218818545341492,0.8333298563957214,0.4894750118255615,0.4748986065387726,-0.01394742727279663,-1.808538794517517,-0.0270652174949646,0.2591206431388855,0.8398286700248718,0.6529868245124817,0.6066399216651917,0.25235235691070557,0.6055506467819214,1.1291656494140625,0.6707455515861511,0.2304290384054184,0.8886793851852417,0.5251321196556091,0.5372681021690369,-0.07648351043462753,0.31253519654273987,0.7311437726020813,0.26887327432632446,0.507955014705658,1.8001633882522583,0.4746447205543518,0.5041137933731079,0.7458837628364563,0.7003962993621826,0.8502526879310608,0.4159579277038574,1.1280802488327026,0.8509436845779419,0.7908638715744019,1.3302984237670898,0.41799381375312805,0.5572171211242676,-0.042018383741378784,0.7544620037078857,0.7697256207466125,0.6123838424682617,0.9485591053962708,0.6016362905502319,0.5449411869049072,0.5438298583030701,0.2524552643299103,0.00036585330963134766,0.4167707860469818,-0.07624083012342453,1.0804802179336548,0.22521242499351501,0.6012089848518372,0.3789118826389313,0.791031539440155,0.05681728571653366,0.7221918106079102,0.6688581705093384,0.2753853499889374,0.5362630486488342,0.45471876859664917,0.6698883771896362,0.8716079592704773,0.5258496999740601,0.16926425695419312,0.5428668260574341,0.40633636713027954,0.3640756607055664,0.8629806637763977,0.2946016192436218,0.3702411651611328,0.5108915567398071,0.5680025815963745,0.014887727797031403,1.1458076238632202,0.02562837302684784,0.5651436448097229,0.398434042930603,0.8523080348968506,-1.8413640260696411,-10.44265365600586,0.04611726850271225,0.43058711290359497,0.01900877058506012,0.6924371123313904,0.8060780763626099,-1.982546091079712,0.06833446025848389,0.9019680619239807,0.5518985986709595,0.6895958185195923,0.13672670722007751,-1.005202293395996,0.6057968735694885,0.7203093767166138,0.5553733706474304,0.0015232786536216736,0.30493679642677307,0.705108106136322,0.4468214511871338,0.2951629161834717,0.6288414001464844,0.05643514543771744,0.5961592793464661,0.7236424088478088,0.6058366894721985,0.5019217133522034,0.5808110237121582,0.057119809091091156,0.4520549476146698,1.4786133766174316,0.814002275466919,0.4123958945274353,-0.13247179985046387,0.4500463008880615,0.5364196300506592,1.0504331588745117,0.3679281771183014,0.567135751247406,0.7651103734970093,-0.0482783168554306,0.3044776916503906,0.174024298787117,1.8832324743270874,0.056976743042469025,0.9345969557762146,1.2948077917099,1.0732710361480713,0.41840502619743347,-4.03672456741333e-05,0.6476827263832092,0.7870287299156189,0.429381400346756,0.6328892111778259,0.8197631239891052,0.6799580454826355,0.46027252078056335,0.13855616748332977,0.3895696997642517,-0.012945123016834259,0.44761860370635986,0.9762628078460693,-1.134747862815857,0.5569135546684265,-0.03919646143913269,0.33614760637283325,0.006221503019332886,0.530644953250885,0.3880089521408081,0.7451861500740051,-4.41429328918457,0.16824302077293396,0.8226826190948486,0.6497251987457275,0.7511093020439148,0.4310974180698395,1.1060919761657715,0.5119277834892273,0.14428499341011047,0.3985309898853302,0.6921350359916687,0.690013587474823,0.7274655699729919,0.27941450476646423,0.710203230381012,0.6906443238258362,0.15653060376644135,-0.053953319787979126,0.32377293705940247,-0.03439072519540787,1.0180732011795044,0.30397847294807434,0.0198745708912611,0.3686695992946625,0.14812692999839783,0.10777933895587921,0.3876982629299164,0.05954638868570328,0.5492330193519592,0.5919539332389832,0.6959607005119324,-4.468879222869873,0.6964836120605469,0.5072730183601379,0.401496946811676,1.1076083183288574,0.0253634974360466,0.2326144129037857,1.1131726503372192,0.5580851435661316,0.7591844201087952,-0.0033358410000801086,0.03132971376180649,0.8233930468559265,0.8898025155067444,-0.007669679820537567,0.43844902515411377,0.8622753620147705,0.27231791615486145,0.6713318824768066,0.6700469255447388,0.48209360241889954,0.7065804600715637,0.3996869921684265,0.1578264832496643,0.6170823574066162,0.46842363476753235,0.3387923240661621,0.6899736523628235,0.7170457243919373,0.41526779532432556,-0.03572218120098114,-0.028344616293907166,0.864995002746582,0.39050841331481934,0.7991014122962952,0.7731030583381653,1.1222946643829346,0.5776771306991577,-0.060758188366889954,0.6591956615447998,0.2627629339694977,-0.026669345796108246,0.6328155398368835,-0.05070389807224274],[2.3805203437805176,1.4762396812438965,0.05809858441352844,1.0668226480484009,1.641412615776062,0.6969597339630127,0.8647224307060242,0.8376075625419617,0.49646446108818054,1.4106967449188232,0.5095959305763245,0.03190168738365173,0.10819869488477707,0.015221811830997467,0.039437636733055115,-0.02310197800397873,0.10139463096857071,1.239504098892212,0.6374633312225342,0.5126890540122986,1.3386949300765991,0.3703490197658539,0.202696293592453,0.17072123289108276,0.02691704034805298,1.779697060585022,-0.04213413596153259,0.04510237276554108,-0.009715549647808075,-0.049338199198246,0.9090951085090637,-0.03183816373348236,0.02694300375878811,0.6723545789718628,1.5517252683639526,1.4775346517562866,-0.05139351636171341,3.3582937717437744,0.006878077983856201,2.0492382049560547,0.09370390325784683,1.2682685852050781,0.296559602022171,0.8028284311294556,0.8704507946968079,-0.20228661596775055,0.2816339135169983,0.9176185131072998,0.4984433650970459,0.6954839825630188,0.531671941280365,1.5239019393920898,1.8367220163345337,0.41962945461273193,1.4559581279754639,1.2359267473220825,-0.4217367470264435,1.2067819833755493,1.2151525020599365,0.1326431781053543,1.1486926078796387,0.29818007349967957,0.4742501974105835,0.2193048894405365,0.6529152393341064,0.42142078280448914,-0.5131694674491882,0.5924689769744873,-0.23099921643733978,-0.003607422113418579,0.4726574718952179,0.2572706341743469,0.4852026402950287,-0.7524636387825012,0.6266671419143677,1.0320744514465332,1.5793788433074951,1.3395854234695435,0.0090394988656044,1.3522717952728271,1.023472785949707,0.44797152280807495,2.1642189025878906,-0.21425612270832062,0.7955904006958008,0.6097010374069214,-0.024277955293655396,0.059933245182037354,0.255919486284256,0.6179444193840027,0.228292778134346,0.14940771460533142,0.4333042800426483,0.8215053677558899,0.20813259482383728,1.6993175745010376,0.5296247005462646,0.7624261975288391,1.4715745449066162,0.1120917797088623,2.0232436656951904,0.7310590744018555,0.7508575916290283,0.27496400475502014,0.036478012800216675,-0.27123111486434937,0.05362742394208908,0.5682611465454102,1.4199224710464478,-0.1733691543340683,2.793170690536499,8.26633358001709,-0.010520204901695251,0.2565319538116455,-0.05318206548690796,0.9537074565887451,-0.22665151953697205,3.0222575664520264,2.428572654724121,0.17765066027641296,0.3921375572681427,1.2393609285354614,2.2654192447662354,2.2499654293060303,0.7658695578575134,-0.23473739624023438,0.26715993881225586,0.012127213180065155,1.4769279956817627,1.086309552192688,1.2865266799926758,1.1118042469024658,0.3561706244945526,-0.0024168789386749268,0.9951972365379333,-0.14546585083007812,0.0765535980463028,1.3693276643753052,0.6940781474113464,-0.00934087485074997,1.727579116821289,-1.087878942489624,1.0879566669464111,1.7849786281585693,1.3320796489715576,1.5446057319641113,0.8777627348899841,-0.26377031207084656,1.6322662830352783,0.621092677116394,-0.29622748494148254,-0.025184951722621918,1.9348130226135254,1.9349067211151123,-0.790358304977417,-0.05097964406013489,0.4635081887245178,-0.4641822874546051,0.15763558447360992,1.6889268159866333,0.004427917301654816,0.4375901222229004,0.6944435238838196,1.1619484424591064,0.3657797873020172,-0.045210447162389755,0.41950955986976624,1.190956473350525,2.0070669651031494,1.212900996208191,-0.04998927563428879,0.8053258061408997,0.05006619915366173,2.377922296524048,0.8543612957000732,0.03951272368431091,1.7700475454330444,0.01020783931016922,0.7087838053703308,0.6423808932304382,-0.2983165681362152,6.267207622528076,1.7878189086914062,0.5437594056129456,-0.1123763769865036,0.10398580878973007,1.629040002822876,-0.42867159843444824,1.6022175550460815,2.2212910652160645,1.7614351511001587,0.2393893152475357,0.2695448696613312,0.3790138065814972,2.058858633041382,0.3222585916519165,0.34514740109443665,0.902350664138794,0.06121654063463211,0.7698006629943848,-0.010942913591861725,-0.1850489377975464,1.2585405111312866,0.8214132189750671,0.7999328970909119,2.15909743309021,1.5409048795700073,1.6010099649429321,1.0987223386764526,0.5818420648574829,1.630167841911316,0.956098735332489,3.615215301513672,0.7901755571365356,0.6194522380828857,1.7784233093261719,0.6531310677528381,-0.05185997486114502,1.3273946046829224,-0.08121225237846375,0.5445888042449951,0.5920894145965576,0.030520498752593994,-0.016903579235076904,0.47101402282714844,0.2020564079284668,-0.059199847280979156,1.0897701978683472,0.15197674930095673,1.1493737697601318,1.072163701057434,0.13013017177581787,1.2582613229751587,0.8083025217056274,1.8105162382125854,2.104687452316284,0.7382717728614807,0.515488862991333,1.1866623163223267,0.5752488970756531,0.6194789409637451,1.8170125484466553,-0.043732210993766785,-0.03351815789937973,-0.6823261380195618,1.5241366624832153,0.31103309988975525,0.04081364721059799,0.037630241364240646,0.8529678583145142,0.02655666321516037,0.649992048740387,1.7087057828903198,-0.055308789014816284,0.7618108987808228,0.06230863183736801],[2.136478900909424,0.6660523414611816,-0.04521104693412781,0.4931732416152954,1.6226165294647217,-0.8253386616706848,0.8660529851913452,-0.8055776357650757,-2.7907302379608154,-0.029972948133945465,0.45503318309783936,-0.019322022795677185,-0.6100491881370544,0.05926109850406647,-2.3356785774230957,-0.0492323637008667,-0.8879283666610718,0.2836107909679413,-1.694336175918579,0.1889941245317459,0.8018938899040222,-0.5656933784484863,-0.2856498658657074,-2.195810556411743,0.0030031949281692505,1.5027399063110352,-0.023587122559547424,-0.033407554030418396,-0.02364058792591095,-2.6728100776672363,0.41231417655944824,0.04242362082004547,-2.8850083351135254,-1.3384959697723389,0.901992917060852,1.486823558807373,-0.057812951505184174,3.063552141189575,0.02242540568113327,1.6297639608383179,-0.5435683131217957,1.0474835634231567,-0.951165497303009,-0.19506283104419708,-1.2327899932861328,-0.22580698132514954,-2.2436540126800537,-2.8452343940734863,0.5014360547065735,0.32134976983070374,-0.4125916361808777,0.49945181608200073,2.0526320934295654,0.3331696391105652,0.9487116932868958,0.130548357963562,2.2095813751220703,-3.5433740615844727,0.44534751772880554,-0.2939317226409912,0.7639258503913879,-1.1375881433486938,-0.28266045451164246,-2.8870084285736084,0.8689307570457458,-1.2661638259887695,-4.192551136016846,-0.3331841826438904,-0.2649567723274231,-0.021432891488075256,-2.6017508506774902,0.30825135111808777,0.09976783394813538,-1.2385647296905518,-0.29630526900291443,-0.38342180848121643,1.371354341506958,1.5789850950241089,-0.05228909105062485,1.026495099067688,-0.0913720354437828,-1.0536636114120483,1.8214726448059082,-0.49520307779312134,-1.2719013690948486,0.18413853645324707,-0.05518440157175064,-2.1846189498901367,-0.05659801885485649,-0.11242691427469254,-0.8632094264030457,-0.05549580231308937,-2.321230411529541,-0.4469640851020813,-1.8325027227401733,1.7719380855560303,-0.5212687849998474,-1.4404706954956055,1.3905912637710571,-2.410330057144165,1.751632571220398,-1.5467557907104492,-2.4557714462280273,-1.415941596031189,-0.009073100984096527,-1.8509219884872437,0.01466677337884903,-1.7712510824203491,0.5639239549636841,-2.2416718006134033,2.984488010406494,7.377319812774658,-0.05590309947729111,-0.11062409728765488,-0.02155406028032303,1.2091689109802246,-2.9459807872772217,3.0767087936401367,2.161046266555786,-0.9073987603187561,-0.41391652822494507,-0.3158489465713501,1.4870563745498657,1.2320307493209839,-1.1899869441986084,-2.5410380363464355,-2.176574230194092,0.041764408349990845,1.2335783243179321,1.1816505193710327,0.8204877972602844,-1.3870183229446411,-0.041514620184898376,0.004640914499759674,1.098728895187378,-0.10812730342149734,-1.7085297107696533,1.0369993448257446,-2.8189194202423096,0.03596281260251999,1.502345323562622,-1.3412812948226929,0.9160594344139099,1.1579533815383911,0.34413936734199524,1.2687633037567139,-1.5965484380722046,-1.595147967338562,1.7135133743286133,0.141855850815773,-3.0978281497955322,0.016698844730854034,2.195758581161499,1.2063758373260498,-1.9511178731918335,0.002368353307247162,-3.331505537033081,-4.389606952667236,-3.264281749725342,0.9860987067222595,-0.00021372735500335693,-1.6593575477600098,-0.05421668291091919,0.2711374759674072,-0.10762737691402435,-1.2225728034973145,-2.544945001602173,-0.19782917201519012,1.7647993564605713,0.5013164281845093,-0.04496247321367264,0.03544064238667488,-3.174529790878296,0.3950254023075104,-0.790489137172699,0.03771989047527313,1.2127481698989868,-0.06227853149175644,-3.620016098022461,-2.206101179122925,-0.6501990556716919,5.157131671905518,0.609220564365387,-0.15020284056663513,-3.1917357444763184,-3.648441791534424,1.5873088836669922,-2.0434772968292236,1.3937067985534668,2.041703939437866,2.0526034832000732,0.13664676249027252,-0.9853292107582092,-0.8753873705863953,1.9785547256469727,-0.3496844470500946,-2.651636838912964,0.3936956226825714,0.035318128764629364,0.06536608934402466,0.039770908653736115,-1.8366248607635498,-0.15355649590492249,0.21247336268424988,-1.2967019081115723,1.1538437604904175,-3.3356149196624756,1.084302306175232,0.6258241534233093,-1.2869329452514648,1.6669185161590576,-0.8772632479667664,4.175710201263428,-1.9854416847229004,-2.21573805809021,1.0679572820663452,1.0396864414215088,-0.039406515657901764,-3.9189164638519287,-1.3806591033935547,-0.5452449917793274,-0.8908215165138245,-0.05753668397665024,-0.041725076735019684,-0.16512301564216614,-2.487269401550293,0.04187784343957901,0.17004676163196564,-3.6167914867401123,-0.7423185110092163,0.3525349199771881,-2.091838836669922,-0.02032395452260971,-0.46764135360717773,1.5555778741836548,1.8642040491104126,-0.13906218111515045,-1.1078269481658936,1.3653955459594727,-1.7451785802841187,-1.1026499271392822,0.8743898272514343,-0.026595093309879303,0.019528254866600037,-1.1770745515823364,1.0134810209274292,-0.6479706168174744,-2.5995500087738037,-2.9387106895446777,-0.8946812152862549,0.039918676018714905,0.1251063048839569,1.575176477432251,0.02984408289194107,0.26823890209198,-0.0023437365889549255],[0.16316112875938416,0.352334201335907,0.04048457741737366,0.6032302379608154,0.37277477979660034,0.827665388584137,0.5585305094718933,0.5987457633018494,0.8666847944259644,0.18701517581939697,0.6674229502677917,0.06196796894073486,0.4198319613933563,0.03889898955821991,0.6912524700164795,0.011010855436325073,0.5188442468643188,0.546668291091919,0.8689349293708801,0.5316817164421082,0.507702648639679,0.6470739245414734,0.8257690668106079,0.916778564453125,0.0036230310797691345,0.45054662227630615,-0.0008945688605308533,0.008625201880931854,-0.040526144206523895,0.7610878944396973,0.5009688138961792,-0.04383932054042816,0.8770262002944946,0.943988561630249,0.5102619528770447,0.4199010133743286,0.00668179988861084,-1.7927459478378296,0.028364993631839752,0.2327246069908142,0.844882607460022,0.6694213151931763,0.5769951939582825,0.5393083095550537,0.8510950207710266,1.1085814237594604,0.6327590346336365,0.5909262299537659,0.8349794149398804,0.4233394265174866,0.5144752860069275,0.09731672704219818,0.23472830653190613,0.8907910585403442,0.29214078187942505,0.6919750571250916,1.775193452835083,0.6572107672691345,0.4761354923248291,0.7735339403152466,0.6374357342720032,0.8830276727676392,0.39229997992515564,1.190399169921875,0.6586320400238037,0.7325268983840942,1.2418341636657715,0.36916810274124146,0.6623632907867432,0.038206517696380615,0.8863195180892944,0.6619660258293152,0.43122780323028564,0.9405080676078796,0.5606191158294678,0.6775432825088501,0.7557576298713684,0.07724504917860031,-0.04664815217256546,0.366928368806839,0.17800703644752502,0.9966749548912048,0.3614709675312042,0.4978967010974884,0.5830162763595581,0.5720945000648499,-0.029845640063285828,0.6448490023612976,0.856248140335083,0.3781443238258362,0.4428885281085968,0.620272696018219,0.814088761806488,0.9528415203094482,0.5582471489906311,0.14872512221336365,0.5549536943435669,0.5134958028793335,0.2927192449569702,0.771653413772583,0.2324465811252594,0.5247700214385986,0.7147418260574341,0.5154768228530884,0.05076584219932556,1.162434697151184,0.01602041721343994,0.7550787329673767,0.4815486967563629,0.9053671956062317,-1.994732141494751,-9.354681968688965,-0.015003852546215057,0.5410120487213135,0.061518050730228424,0.648443341255188,0.605545699596405,-2.0413596630096436,0.22661378979682922,0.777636706829071,0.5824068188667297,0.7319850325584412,0.3441894054412842,-1.0259100198745728,0.6800858378410339,0.6686846017837524,0.5403538346290588,0.030108235776424408,0.25435954332351685,0.5977391004562378,0.3420243263244629,0.6154736876487732,0.5491752028465271,-0.012273505330085754,0.3568934500217438,0.8472101092338562,0.5038755536079407,0.5292847752571106,0.7926862835884094,0.03743436187505722,0.5245048403739929,1.5060945749282837,0.8313283920288086,0.4383890628814697,-0.027953889220952988,0.4115919768810272,0.7846047878265381,0.828736424446106,0.291966050863266,0.6341018080711365,0.6240372061729431,0.04343384504318237,0.3713456392288208,0.41668787598609924,1.9811158180236816,-0.014637775719165802,1.1228340864181519,1.4585530757904053,1.17051100730896,0.42191368341445923,0.062082014977931976,0.5963281393051147,0.7456610798835754,0.3945247232913971,0.5638711452484131,0.6031312942504883,0.6990168690681458,0.5483587384223938,0.140253946185112,0.41504889726638794,-0.011755548417568207,0.36525142192840576,0.8205874562263489,-1.3393827676773071,0.754605233669281,0.017948664724826813,0.3830253481864929,-0.058282315731048584,0.6928008198738098,0.5410881042480469,0.6797464489936829,-3.798103094100952,0.3562021553516388,0.9006239771842957,0.4964097738265991,0.8513481020927429,0.40623658895492554,1.0972806215286255,0.49826568365097046,0.20673172175884247,0.22404161095619202,0.9357394576072693,0.7070850729942322,0.6809708476066589,0.24531719088554382,0.6060380935668945,0.6750516295433044,0.2770264148712158,0.053769998252391815,0.4063975214958191,0.016122005879878998,0.7970657348632812,0.4223554730415344,0.22744250297546387,0.540367841720581,0.3697494566440582,0.5427313446998596,0.40280279517173767,0.1472294181585312,0.7043488621711731,0.604934573173523,0.7272586226463318,-4.518647193908691,0.9422062635421753,0.5751194357872009,0.5172745585441589,1.0008584260940552,-0.048617810010910034,0.56959068775177,1.097019910812378,0.5868979096412659,0.8203694224357605,0.028068237006664276,0.011919379234313965,0.8229905962944031,0.7574814558029175,0.04167050123214722,0.4346911907196045,0.9305258393287659,0.5128506422042847,0.666506290435791,0.6892860531806946,0.5496301054954529,0.7509152889251709,0.4859853982925415,0.11374540627002716,0.5982169508934021,0.6829444766044617,0.16166816651821136,0.7087476849555969,0.7476454377174377,0.5652293562889099,0.02162925899028778,0.005876779556274414,0.7968490719795227,0.3707311451435089,0.7085611820220947,0.7028055191040039,1.0326350927352905,0.7181777358055115,-0.05744224041700363,0.9285582304000854,0.1494428962469101,0.021899506449699402,0.5419154763221741,0.0003370046615600586],[0.15411019325256348,0.49374914169311523,0.05271104723215103,0.24732151627540588,0.310837984085083,0.8162352442741394,0.463410884141922,0.635604202747345,1.028128743171692,0.41323304176330566,0.8772902488708496,-0.058486782014369965,0.5145402550697327,-0.022605478763580322,0.7153849601745605,0.05950028449296951,0.3484461307525635,0.6798455715179443,0.9132522344589233,0.6396687626838684,0.6028232574462891,0.5260267853736877,0.7668135762214661,0.7108297348022461,0.055239371955394745,0.4768989682197571,-0.037415213882923126,0.01944950968027115,-0.007584132254123688,0.7082345485687256,0.3997155427932739,-0.014521822333335876,0.8896815180778503,0.8387681245803833,0.5507646203041077,0.3760632872581482,0.00614117830991745,-1.7122297286987305,-0.0366334468126297,0.3374069631099701,0.7451951503753662,0.7934066653251648,0.618401825428009,0.8633221387863159,1.0303031206130981,1.0195553302764893,0.6487019062042236,0.8924656510353088,0.2962797284126282,0.2687666416168213,0.3190459907054901,0.5757205486297607,0.12608063220977783,1.0196285247802734,0.2850358784198761,0.8375812768936157,1.1848725080490112,0.7940574288368225,0.6699588894844055,0.7994413375854492,0.4957393705844879,0.9254921674728394,0.390514612197876,1.2321001291275024,0.6253867149353027,0.7078800201416016,1.2926210165023804,0.4034149944782257,0.8652502298355103,0.05972196161746979,0.8560304641723633,0.34938639402389526,0.463250070810318,0.9443839192390442,0.6105586290359497,0.8680585026741028,0.6692267656326294,-0.04977864772081375,-0.04553661495447159,0.31996476650238037,0.6890362501144409,1.1027123928070068,0.35387423634529114,0.5156139135360718,0.6502475142478943,0.5988945364952087,0.05075301229953766,0.37159913778305054,1.0701472759246826,0.7354671955108643,0.41190364956855774,0.9713948965072632,0.9047621488571167,0.8652499914169312,0.4911558926105499,0.11749834567308426,0.6056360006332397,0.6167210936546326,0.22181855142116547,0.771457850933075,0.28133732080459595,0.5410346984863281,0.7872944474220276,0.3676476776599884,-0.02961791306734085,1.027003526687622,-0.005576319992542267,0.7292954325675964,0.5142595171928406,1.0329289436340332,-2.0275533199310303,-7.970853805541992,-0.05313674360513687,0.7522950172424316,-0.05112643539905548,0.34794580936431885,0.44267380237579346,-1.9131598472595215,0.27882492542266846,0.8323456645011902,0.6528998613357544,0.9669486880302429,0.4799611270427704,-0.966713011264801,0.7073394060134888,0.5064549446105957,0.3827149271965027,0.005775377154350281,0.24335706233978271,0.5391489863395691,0.353324294090271,1.0508629083633423,0.43737998604774475,-0.06041968613862991,0.31161513924598694,1.0380529165267944,0.27260807156562805,0.49389034509658813,0.9245132207870483,0.030688144266605377,0.5068687200546265,1.4744112491607666,0.7785415649414062,0.4112326204776764,0.341004878282547,0.366191565990448,0.821271538734436,0.6328787803649902,0.21685031056404114,0.7404201030731201,0.6219708919525146,-0.031012684106826782,0.24844977259635925,0.5317106246948242,2.0858747959136963,0.018437601625919342,1.1230937242507935,1.7891895771026611,1.1989682912826538,0.50584477186203,0.03418806940317154,0.5888658761978149,0.5620409846305847,0.5526171922683716,0.664165198802948,0.5198452472686768,0.5510697364807129,0.6004568338394165,0.057648953050374985,0.5890008807182312,-0.06071209907531738,0.33910366892814636,0.7890118360519409,-1.4497566223144531,0.8959416151046753,0.024594493210315704,0.41957569122314453,-0.05863191932439804,0.7398034930229187,0.49513718485832214,0.7126402258872986,-3.029697895050049,0.5417441725730896,0.8820739388465881,0.6166632175445557,0.6616517305374146,0.3608376681804657,1.0530451536178589,0.6380166411399841,0.17922648787498474,0.13581198453903198,1.2676759958267212,0.47441595792770386,0.6493043899536133,0.2652353346347809,0.568687379360199,0.697502076625824,0.5112445950508118,0.012044578790664673,0.5184205174446106,0.002298124134540558,0.6082345843315125,0.477066308259964,0.3081583082675934,0.837238073348999,0.4534219801425934,1.1440598964691162,0.3245916962623596,0.2398718148469925,0.8360804915428162,0.4599941074848175,0.7800538539886475,-4.350763320922852,1.131553053855896,0.6370840668678284,0.5692344307899475,0.8909447193145752,0.034015901386737823,0.9102274179458618,0.8741481304168701,0.5620867013931274,0.701230525970459,0.024942822754383087,-0.04662267863750458,0.6225939989089966,0.7503189444541931,0.05721413344144821,0.5426346659660339,0.8340229988098145,0.7026909589767456,0.5472618341445923,0.6283507347106934,0.7075088024139404,0.6581218838691711,0.47668543457984924,0.05613341182470322,0.6675878763198853,1.189801812171936,0.022041501477360725,0.6035034656524658,0.6710873246192932,0.7559651136398315,-0.03417157381772995,0.014926686882972717,0.6540371775627136,0.4821959435939789,0.7348950505256653,0.7566351890563965,1.150571346282959,0.7936739325523376,-0.053907811641693115,1.2267115116119385,0.12301527708768845,0.0482635498046875,0.3612772524356842,0.012967988848686218],[-0.008159702643752098,0.022910593077540398,0.009721264243125916,-0.04533718526363373,0.017932971939444542,0.030656196177005768,-0.03968197852373123,-0.04719951003789902,-0.042558394372463226,-0.030409708619117737,-0.007879748940467834,0.0046731531620025635,-0.0004408210515975952,-0.01653057336807251,0.03472928702831268,0.003302961587905884,-0.042169082909822464,-0.02342125214636326,-0.03674592822790146,-0.02783975563943386,-0.06577756255865097,0.004160333424806595,-0.04842729866504669,0.018083004280924797,0.042814984917640686,-0.05300261080265045,-0.032983213663101196,-0.049383535981178284,0.016679413616657257,0.006913389544934034,-0.03957026079297066,0.037755049765110016,0.02593417465686798,-0.06194763630628586,-0.010729249566793442,-0.03423314169049263,-0.010836884379386902,0.02707033045589924,-0.0067225173115730286,-0.05051785334944725,0.04396466165781021,-0.06416972726583481,-0.027006331831216812,0.024082094430923462,0.05524306744337082,0.0545804426074028,-0.01468251645565033,0.016855813562870026,-0.05859251692891121,-0.018789824098348618,-0.024546818807721138,0.017742112278938293,-0.04849030077457428,0.013502955436706543,0.025557225570082664,0.042534809559583664,-0.017056802287697792,0.05710039287805557,-0.06610429286956787,-0.017710886895656586,0.016253283247351646,0.009240095503628254,0.02397521585226059,-0.04750489071011543,0.031113367527723312,-0.05865778774023056,-0.04285489022731781,-0.004250511527061462,-0.06710673123598099,-0.05940805375576019,-0.05548328161239624,0.043122418224811554,0.006941510364413261,-0.01994195580482483,-0.002568677067756653,-0.054476164281368256,-0.0657319650053978,-0.051015112549066544,-0.060464903712272644,0.03433382883667946,-0.0218706876039505,-0.01999477669596672,-0.061287883669137955,0.010351315140724182,-0.009377136826515198,-0.049480147659778595,0.04007253795862198,0.04707548767328262,-0.04454871267080307,0.03541126847267151,-0.01510984543710947,-0.0005900636315345764,0.021702894940972328,-0.01789240725338459,0.04906386882066727,0.031059084460139275,-0.04701901227235794,-0.04030685871839523,-0.06911488622426987,0.019379492849111557,-0.054290443658828735,-0.05238618701696396,-0.04006044566631317,-0.065423883497715,-0.05089019238948822,0.04864005371928215,0.034911587834358215,0.055376626551151276,-0.03726698085665703,-0.030570408329367638,-0.029791630804538727,-0.006526830140501261,-0.044860340654850006,0.0023906014394015074,-0.040056176483631134,0.0027127631474286318,0.05724984407424927,0.00270333350636065,0.03818346932530403,-0.049366772174835205,-0.00882023572921753,-0.044792503118515015,-0.013418068177998066,-0.02486230432987213,-0.03893543779850006,-0.060371287167072296,-0.027268484234809875,0.008369900286197662,-0.018309883773326874,-0.06544167548418045,0.039698269218206406,0.04634293168783188,-0.04438040778040886,0.006353452801704407,0.03406326100230217,-0.06480167806148529,-0.05957389995455742,0.027912184596061707,-0.0012378841638565063,0.01990237832069397,-0.03342679142951965,0.006044288631528616,0.03414091467857361,-0.02267150767147541,-0.02018783986568451,-0.06624836474657059,-0.012633359991014004,0.033132992684841156,-0.06643741577863693,-0.004827916622161865,0.03954850882291794,-0.01783841848373413,-0.030630866065621376,-0.02548595331609249,-0.025322318077087402,0.00748039036989212,-0.060175247490406036,0.023883573710918427,-0.01762409135699272,-0.014880147762596607,-0.004216820001602173,0.028189394623041153,-0.04582808539271355,-0.05836040899157524,-0.04520932585000992,-0.051339492201805115,-0.030429281294345856,0.04284092038869858,-0.05576782673597336,-0.04223964735865593,-0.05095022916793823,-0.03778618574142456,-0.001754574477672577,-0.03811035305261612,0.000660628080368042,0.021121181547641754,-0.017643513157963753,0.026966243982315063,0.014341726899147034,0.05524963140487671,-0.003190852701663971,0.046478889882564545,0.04479512944817543,0.028037087991833687,0.0353708490729332,-0.04185636341571808,-0.04927736148238182,0.022399282082915306,0.01596292108297348,0.04898157715797424,-0.015606734901666641,-0.01148930937051773,0.0361505001783371,-0.004689801950007677,0.05104893445968628,-0.038764145225286484,-0.020506374537944794,-0.00349366944283247,0.033334024250507355,-0.054791733622550964,-0.017494753003120422,0.040146660059690475,0.007035916205495596,0.04418616741895676,-0.021170929074287415,-0.045656703412532806,-0.04266925901174545,-0.042463451623916626,-0.04696923494338989,0.027356598526239395,0.009428161196410656,-0.03998902440071106,0.04946344345808029,0.011214330792427063,0.023259826004505157,-0.033142343163490295,0.03586665913462639,-0.044086799025535583,0.045557938516139984,-0.041060250252485275,0.020885080099105835,-0.0289293359965086,0.04060432314872742,-0.05241695046424866,-0.018840128555893898,-0.016869768500328064,-0.03737325221300125,-0.0373150035738945,-0.017537817358970642,0.002747064223513007,0.03740932419896126,-0.010270453989505768,0.05578158423304558,-0.03639335557818413,-0.03962424769997597,-0.010733027011156082,-0.01810506358742714,0.019852042198181152,0.05084986612200737,0.021399378776550293,-0.05860615894198418,-0.027448495849967003,-0.012416526675224304,-0.05691228061914444,0.01783359795808792,0.04759350046515465,0.03104085475206375,-0.0012375861406326294,-0.004758208990097046,-0.03566497564315796,-0.006943345069885254,0.05481480807065964,-0.03906964510679245,0.009999103844165802,-0.05286610126495361,-0.017091356217861176],[0.13604354858398438,0.2371758073568344,0.016981184482574463,0.4060101807117462,0.3538622558116913,0.7300760746002197,0.7608493566513062,0.4617862105369568,0.7142161726951599,0.01356081385165453,0.6516547203063965,-0.031894251704216,0.4540650248527527,-0.04455430805683136,0.835813045501709,0.011883065104484558,0.6397149562835693,0.5181484818458557,0.8474516272544861,0.4441947340965271,0.5145851373672485,0.6574625372886658,0.8433047533035278,0.8741974234580994,-0.021091125905513763,0.2811492383480072,-0.061065673828125,0.038415245711803436,0.061001621186733246,0.8996551632881165,0.568298876285553,0.04477363079786301,0.9148069620132446,0.6774716377258301,0.523959755897522,0.38983210921287537,0.015466772019863129,-1.8599222898483276,-0.037572987377643585,0.32085421681404114,0.9089391827583313,0.696260929107666,0.6942582130432129,0.39825835824012756,0.6828362345695496,1.0190924406051636,0.6741601228713989,0.4604448974132538,0.8006963729858398,0.5648671984672546,0.3695027232170105,0.10409658402204514,0.360230416059494,0.8637391924858093,0.28486305475234985,0.5565029978752136,1.5838971138000488,0.3834933340549469,0.5893398523330688,0.7428439855575562,0.6150531768798828,0.8797913193702698,0.4329841434955597,1.1594898700714111,0.7905084490776062,0.8305609822273254,1.3101969957351685,0.43629762530326843,0.6693905591964722,0.019788607954978943,0.7824801802635193,0.7477436065673828,0.5947689414024353,0.9532567858695984,0.5862506031990051,0.6338107585906982,0.4904194474220276,0.28531351685523987,0.04018126428127289,0.41237586736679077,0.15330271422863007,1.0501896142959595,0.22739620506763458,0.5220147967338562,0.45601850748062134,0.7204341888427734,0.01893950253725052,0.6530869603157043,0.8089950680732727,0.3419644236564636,0.5975175499916077,0.6884440183639526,0.8142392039299011,0.8044069409370422,0.5996363759040833,0.22812984883785248,0.560941219329834,0.423227459192276,0.34131520986557007,0.8751314878463745,0.2513141632080078,0.4174787700176239,0.6080016493797302,0.5794656276702881,-0.05899428576231003,1.1110374927520752,-0.06129714101552963,0.5677931308746338,0.4986870586872101,0.9995233416557312,-1.8974926471710205,-10.014216423034668,0.062111496925354004,0.6080459356307983,-0.05740358680486679,0.6517742872238159,0.8090701699256897,-1.934592843055725,0.11459554731845856,0.8988926410675049,0.6281480193138123,0.6616001129150391,0.13481928408145905,-1.0014761686325073,0.575857937335968,0.8356180191040039,0.43276751041412354,-0.023856177926063538,0.3828525245189667,0.7064773440361023,0.42645177245140076,0.4193420112133026,0.7225971221923828,-0.03119441121816635,0.5626967549324036,0.8132454752922058,0.532705545425415,0.4813086688518524,0.5426893830299377,-0.012768484652042389,0.4568638205528259,1.4914829730987549,0.6813387274742126,0.42689892649650574,-0.04220019653439522,0.4248303771018982,0.6238117218017578,0.9358482956886292,0.3660197854042053,0.6278395652770996,0.7019550204277039,-0.016832120716571808,0.3126195967197418,0.2436458170413971,1.9804861545562744,-0.025976814329624176,0.9914983510971069,1.3308510780334473,1.0503467321395874,0.4518660604953766,0.016238026320934296,0.5634203553199768,0.684811532497406,0.37426429986953735,0.5377417206764221,0.8022261261940002,0.73368901014328,0.3375135362148285,0.20981766283512115,0.47890496253967285,-0.033539533615112305,0.46705716848373413,0.9650501608848572,-1.2817271947860718,0.6407937407493591,-0.012392796576023102,0.2753591239452362,-0.02380366623401642,0.5717762112617493,0.4136299192905426,0.7316632270812988,-4.295844078063965,0.21158671379089355,0.7199881672859192,0.7047877311706543,0.8426621556282043,0.4443335235118866,1.1560240983963013,0.48953986167907715,0.0987873300909996,0.2597542405128479,0.9249826669692993,0.6558101177215576,0.7986786365509033,0.2637694776058197,0.6841588020324707,0.7734892964363098,0.2228354811668396,0.02145993709564209,0.39366623759269714,-0.019639693200588226,1.0214259624481201,0.2810673713684082,0.1722400039434433,0.5476306080818176,0.13961654901504517,0.4113639295101166,0.38131746649742126,0.1831054389476776,0.5931478142738342,0.5129908919334412,0.6941062808036804,-4.5270891189575195,0.735960841178894,0.6144294738769531,0.3973793685436249,0.9987232089042664,-0.0009238943457603455,0.3011031150817871,1.0372607707977295,0.546668291091919,0.6803185939788818,0.03605706989765167,0.03274950385093689,0.8166486620903015,0.8339554071426392,0.060372546315193176,0.4768149256706238,0.8833165168762207,0.3931129276752472,0.6073064804077148,0.6819535493850708,0.5794199109077454,0.6359725594520569,0.49902811646461487,0.12726442515850067,0.702095627784729,0.7209851145744324,0.2838483154773712,0.7628742456436157,0.6223641037940979,0.39173707365989685,-0.009838312864303589,0.04786772280931473,0.8765061497688293,0.43992090225219727,0.7702957391738892,0.8470873832702637,1.050413966178894,0.49302342534065247,-0.008582428097724915,0.7920503616333008,0.2879587709903717,0.022955067455768585,0.6417540907859802,0.014695703983306885],[0.21052421629428864,0.3612963557243347,0.041473954916000366,0.41557103395462036,0.3174535930156708,0.8099020719528198,0.6780964136123657,0.6153616309165955,0.8769078254699707,0.2244725525379181,0.6757891178131104,-0.0592554435133934,0.5204694271087646,0.05098775029182434,0.7766363620758057,-0.02038973569869995,0.5962912440299988,0.550055742263794,0.8541019558906555,0.4879257380962372,0.4931173324584961,0.5755817294120789,0.7896485924720764,0.8648635149002075,0.03162325918674469,0.38173872232437134,-0.012836150825023651,0.020579107105731964,-0.013783223927021027,0.8268836140632629,0.5625776648521423,-0.01803021878004074,0.9638652205467224,0.8921576738357544,0.5705634951591492,0.42913782596588135,-0.039573825895786285,-1.8518877029418945,-0.01214376837015152,0.3281658887863159,0.8536658883094788,0.748409628868103,0.6654350757598877,0.5470618009567261,0.854121208190918,1.1144520044326782,0.6716535091400146,0.6140806674957275,0.6686310768127441,0.4284532964229584,0.42418816685676575,0.1740904301404953,0.17631278932094574,0.8961474299430847,0.3004959225654602,0.6861386895179749,1.6275627613067627,0.527547299861908,0.5881880521774292,0.8649771809577942,0.6223183870315552,0.9411723613739014,0.44825276732444763,1.2476733922958374,0.7940945029258728,0.7159923315048218,1.31683349609375,0.34241554141044617,0.7277659177780151,0.0479927584528923,0.789079487323761,0.6017335653305054,0.5539132356643677,1.1525530815124512,0.5305762887001038,0.7027839422225952,0.6291602849960327,0.20712292194366455,0.036423198878765106,0.3737742602825165,0.3855128884315491,1.033195972442627,0.33619627356529236,0.5728667974472046,0.5217583775520325,0.6402585506439209,0.026513181626796722,0.6299473643302917,0.9173261523246765,0.5291889309883118,0.48555225133895874,0.7727924585342407,0.8805661201477051,0.9045124650001526,0.4932505190372467,0.09946838021278381,0.5952441096305847,0.49564802646636963,0.2865912616252899,0.8257750868797302,0.28526851534843445,0.43499210476875305,0.5993419885635376,0.5810134410858154,-0.006880626082420349,1.1148362159729004,-0.04590380936861038,0.7403557300567627,0.5010891556739807,0.9924478530883789,-2.0802931785583496,-8.983907699584961,0.026908859610557556,0.657231330871582,-0.05194287747144699,0.6185964345932007,0.6103978753089905,-2.0408976078033447,0.09925394505262375,0.8142045736312866,0.5057255029678345,0.8879203200340271,0.33002039790153503,-1.0993235111236572,0.7476708292961121,0.6671328544616699,0.3830519914627075,0.030078783631324768,